{"learner":{"attributes":{"scikit_learn":"{\"_estimator_type\": \"classifier\"}"},"feature_names":["setpoint_raw-global_latitude","setpoint_raw-global_longitude","setpoint_raw-global_altitude","battery_voltage","battery_current","battery_temperature","battery_percentage","global_position-local_pose.pose.position.x","global_position-local_pose.pose.position.y","global_position-local_pose.pose.position.z","global_position-local_pose.pose.orientation.x","global_position-local_pose.pose.orientation.y","global_position-local_pose.pose.orientation.z","global_position-local_twist.twist.linear.x","global_position-local_twist.twist.linear.y","global_position-local_twist.twist.linear.z","imu-data_orientation.x","imu-data_orientation.y","imu-data_orientation.z","imu-data_orientation.w","imu-data_angular_velocity.x","imu-data_angular_velocity.y","imu-data_angular_velocity.z","rc-out_channels_0","rc-out_channels_1","rc-out_channels_2","rc-out_channels_3","rc-out_channels_4","vfr_hud_airspeed","vfr_hud_groundspeed","vfr_hud_heading","vfr_hud_throttle","vfr_hud_altitude","vfr_hud_climb","global_position-global_altitude","global_position-global_longitude","global_position-global_latitude","global_position-raw-satellites_data","setpoint_raw-target_global_latitude","setpoint_raw-target_global_longitude","setpoint_raw-target_global_altitude","setpoint_raw-target_global_yaw","state_connected","state_armed","state_guided","state_manual_input","state_system_status","RSSI_Quality","RSSI_Signal","CPU_Percent","Used_RAM_MB"],"feature_types":["float","float","float","float","float","float","float","float","float","float","float","float","float","float","float","float","float","float","float","float","float","float","float","float","float","float","float","float","float","float","float","float","float","float","float","float","float","float","float","float","float","float","float","float","float","float","float","float","float","float","float"],"gradient_booster":{"model":{"cats":{"enc":[],"feature_segments":[],"sorted_idx":[]},"gbtree_model_param":{"num_parallel_tree":"1","num_trees":"300"},"iteration_indptr":[0,3,6,9,12,15,18,21,24,27,30,33,36,39,42,45,48,51,54,57,60,63,66,69,72,75,78,81,84,87,90,93,96,99,102,105,108,111,114,117,120,123,126,129,132,135,138,141,144,147,150,153,156,159,162,165,168,171,174,177,180,183,186,189,192,195,198,201,204,207,210,213,216,219,222,225,228,231,234,237,240,243,246,249,252,255,258,261,264,267,270,273,276,279,282,285,288,291,294,297,300],"tree_info":[0,1,2,0,1,2,0,1,2,0,1,2,0,1,2,0,1,2,0,1,2,0,1,2,0,1,2,0,1,2,0,1,2,0,1,2,0,1,2,0,1,2,0,1,2,0,1,2,0,1,2,0,1,2,0,1,2,0,1,2,0,1,2,0,1,2,0,1,2,0,1,2,0,1,2,0,1,2,0,1,2,0,1,2,0,1,2,0,1,2,0,1,2,0,1,2,0,1,2,0,1,2,0,1,2,0,1,2,0,1,2,0,1,2,0,1,2,0,1,2,0,1,2,0,1,2,0,1,2,0,1,2,0,1,2,0,1,2,0,1,2,0,1,2,0,1,2,0,1,2,0,1,2,0,1,2,0,1,2,0,1,2,0,1,2,0,1,2,0,1,2,0,1,2,0,1,2,0,1,2,0,1,2,0,1,2,0,1,2,0,1,2,0,1,2,0,1,2,0,1,2,0,1,2,0,1,2,0,1,2,0,1,2,0,1,2,0,1,2,0,1,2,0,1,2,0,1,2,0,1,2,0,1,2,0,1,2,0,1,2,0,1,2,0,1,2,0,1,2,0,1,2,0,1,2,0,1,2,0,1,2,0,1,2,0,1,2,0,1,2,0,1,2,0,1,2,0,1,2,0,1,2,0,1,2,0,1,2,0,1,2,0,1,2,0,1,2,0,1,2],"trees":[{"base_weights":[-1.6957815E-1,-5.9846866E-1,4.2632315E-1,1.6954148E-1,-7.080219E-1,1.4509811E0,-7.0862494E-2,-7.0870385E-2,1.3929051E-1,1.697322E-1,-7.076666E-2],"categories":[],"categories_nodes":[],"categories_segments":[],"categories_sizes":[],"default_left":[0,0,0,0,0,0,0,0,0,0,0],"id":0,"left_children":[1,3,5,-1,7,9,-1,-1,-1,-1,-1],"loss_changes":[7.4279883E3,4.2481914E3,1.4146651E4,0E0,2.409668E1,3.4006523E3,0E0,0E0,0E0,0E0,0E0],"parents":[2147483647,0,0,1,1,2,2,4,4,5,5],"right_children":[2,4,6,-1,8,10,-1,-1,-1,-1,-1],"split_conditions":[1.0476162E0,-8.801815E-1,-2.6869372E-1,1.6954148E-1,1.0335872E0,1.3452916E0,-7.0862494E-2,-7.0870385E-2,1.3929051E-1,1.697322E-1,-7.076666E-2],"split_indices":[38,38,50,0,48,0,0,0,0,0,0],"split_type":[0,0,0,0,0,0,0,0,0,0,0],"sum_hessian":[2.906167E4,1.689893E4,1.2162741E4,7.696254E2,1.6129304E4,6.3917974E3,5.770944E3,1.6124732E4,4.5712094E0,5.737283E3,6.5451404E2],"tree_param":{"num_deleted":"0","num_feature":"51","num_nodes":"11","size_leaf_vector":"1"}},{"base_weights":[-2.0201357E-1,-7.035329E-2,1.4606398E0,-7.026055E-2,1.7278194E-1],"categories":[],"categories_nodes":[],"categories_segments":[],"categories_sizes":[],"default_left":[0,0,0,0,0],"id":1,"left_children":[1,-1,3,-1,-1],"loss_changes":[2.398279E4,0E0,3.8534932E3,0E0,0E0],"parents":[2147483647,0,0,2,2],"right_children":[2,-1,4,-1,-1],"split_conditions":[1.6215347E0,-7.035329E-2,-8.768976E-1,-7.026055E-2,1.7278194E-1],"split_indices":[50,0,0,0,0],"split_type":[0,0,0,0,0],"sum_hessian":[2.8759184E4,2.2095053E4,6.6641294E3,7.324168E2,5.9317124E3],"tree_param":{"num_deleted":"0","num_feature":"51","num_nodes":"5","size_leaf_vector":"1"}},{"base_weights":[3.159839E-1,6.718968E-1,-8.562562E-2,1.2014484E-1,-2.9619446E-2,-8.5623674E-2,1.2012626E-1],"categories":[],"categories_nodes":[],"categories_segments":[],"categories_sizes":[],"default_left":[0,0,0,0,0,0,0],"id":2,"left_children":[1,3,-1,-1,5,-1,-1],"loss_changes":[1.4179143E4,9.684533E3,0E0,0E0,1.1411828E4,0E0,0E0],"parents":[2147483647,0,0,1,1,4,4],"right_children":[2,4,-1,-1,6,-1,-1],"split_conditions":[1.4115094E0,1.0467054E0,-8.562562E-2,1.2014484E-1,1.0688119E0,-8.5623674E-2,1.2012626E-1],"split_indices":[50,0,0,0,1,0,0],"split_type":[0,0,0,0,0,0,0],"sum_hessian":[3.3982805E4,2.6068402E4,7.914403E3,1.4854509E4,1.1213894E4,6.7088013E3,4.505092E3],"tree_param":{"num_deleted":"0","num_feature":"51","num_nodes":"7","size_leaf_vector":"1"}},{"base_weights":[-1.5877458E-1,-5.7555443E-1,3.856988E-1,1.4320873E-1,-6.856332E-1,1.2421749E0,-6.870302E-2,-6.863259E-2,1.2166778E-1,1.43335E-1,-6.8457894E-2],"categories":[],"categories_nodes":[],"categories_segments":[],"categories_sizes":[],"default_left":[0,0,0,0,0,0,0,0,0,0,0],"id":3,"left_children":[1,3,5,-1,7,9,-1,-1,-1,-1,-1],"loss_changes":[6.4890645E3,3.5804868E3,1.1392301E4,0E0,2.1068848E1,2.540581E3,0E0,0E0,0E0,0E0,0E0],"parents":[2147483647,0,0,1,1,2,2,4,4,5,5],"right_children":[2,4,6,-1,8,10,-1,-1,-1,-1,-1],"split_conditions":[1.0476162E0,-8.801815E-1,-2.6869372E-1,1.4320873E-1,1.0335872E0,1.3452916E0,-6.870302E-2,-6.863259E-2,1.2166778E-1,1.43335E-1,-6.8457894E-2],"split_indices":[38,38,50,0,48,0,0,0,0,0,0],"split_type":[0,0,0,0,0,0,0,0,0,0,0],"sum_hessian":[2.8593588E4,1.6195957E4,1.2397631E4,8.412386E2,1.5354719E4,6.8935796E3,5.5040513E3,1.5349769E4,4.9500074E0,6.271563E3,6.2201685E2],"tree_param":{"num_deleted":"0","num_feature":"51","num_nodes":"11","size_leaf_vector":"1"}},{"base_weights":[-1.898203E-1,-6.821053E-2,1.2460607E0,-6.835332E-2,1.4540668E-1],"categories":[],"categories_nodes":[],"categories_segments":[],"categories_sizes":[],"default_left":[0,0,0,0,0],"id":4,"left_children":[1,-1,3,-1,-1],"loss_changes":[1.996319E4,0E0,2.895083E3,0E0,0E0],"parents":[2147483647,0,0,2,2],"right_children":[2,-1,4,-1,-1],"split_conditions":[1.6215347E0,-6.821053E-2,-8.768976E-1,-6.835332E-2,1.4540668E-1],"split_indices":[50,0,0,0,0],"split_type":[0,0,0,0,0],"sum_hessian":[2.8239766E4,2.1030191E4,7.2095757E3,7.013285E2,6.508247E3],"tree_param":{"num_deleted":"0","num_feature":"51","num_nodes":"5","size_leaf_vector":"1"}},{"base_weights":[2.9104355E-1,6.122587E-1,-8.087868E-2,1.0796249E-1,-2.627689E-2,-8.08582E-2,1.0794797E-1],"categories":[],"categories_nodes":[],"categories_segments":[],"categories_sizes":[],"default_left":[0,0,0,0,0,0,0],"id":5,"left_children":[1,3,-1,-1,5,-1,-1],"loss_changes":[1.2018503E4,7.857455E3,0E0,0E0,9.62702E3,0E0,0E0],"parents":[2147483647,0,0,1,1,4,4],"right_children":[2,4,-1,-1,6,-1,-1],"split_conditions":[1.4115094E0,1.0467054E0,-8.087868E-2,1.0796249E-1,1.0688119E0,-8.08582E-2,1.0794797E-1],"split_indices":[50,0,0,0,1,0,0],"split_type":[0,0,0,0,0,0,0],"sum_hessian":[3.401716E4,2.6328217E4,7.688943E3,1.5201224E4,1.1126992E4,6.5167583E3,4.6102334E3],"tree_param":{"num_deleted":"0","num_feature":"51","num_nodes":"7","size_leaf_vector":"1"}},{"base_weights":[-1.4963624E-1,-5.554471E-1,3.5396326E-1,1.248817E-1,-6.65769E-1,1.093664E0,-6.676557E-2,-6.664713E-2,1.082752E-1,1.2498204E-1,-6.6427164E-2],"categories":[],"categories_nodes":[],"categories_segments":[],"categories_sizes":[],"default_left":[0,0,0,0,0,0,0,0,0,0,0],"id":6,"left_children":[1,3,5,-1,7,9,-1,-1,-1,-1,-1],"loss_changes":[5.6973906E3,3.0737437E3,9.401905E3,0E0,1.8585938E1,1.9817783E3,0E0,0E0,0E0,0E0,0E0],"parents":[2147483647,0,0,1,1,2,2,4,4,5,5],"right_children":[2,4,6,-1,8,10,-1,-1,-1,-1,-1],"split_conditions":[1.0476162E0,-8.801815E-1,-2.6869372E-1,1.248817E-1,1.0335872E0,1.3452916E0,-6.676557E-2,-6.664713E-2,1.082752E-1,1.2498204E-1,-6.6427164E-2],"split_indices":[38,38,50,0,48,0,0,0,0,0,0],"split_type":[0,0,0,0,0,0,0,0,0,0,0],"sum_hessian":[2.7876387E4,1.5436905E4,1.243948E4,8.889074E2,1.4547998E4,7.215236E3,5.2242446E3,1.4542776E4,5.221893E0,6.6268647E3,5.883711E2],"tree_param":{"num_deleted":"0","num_feature":"51","num_nodes":"11","size_leaf_vector":"1"}},{"base_weights":[-1.7943943E-1,-6.629928E-2,1.0941393E0,-6.658458E-2,1.264764E-1],"categories":[],"categories_nodes":[],"categories_segments":[],"categories_sizes":[],"default_left":[0,0,0,0,0],"id":7,"left_children":[1,-1,3,-1,-1],"loss_changes":[1.6928807E4,0E0,2.272539E3,0E0,0E0],"parents":[2147483647,0,0,2,2],"right_children":[2,-1,4,-1,-1],"split_conditions":[1.6215347E0,-6.629928E-2,-8.768976E-1,-6.658458E-2,1.264764E-1],"split_indices":[50,0,0,0,0],"split_type":[0,0,0,0,0],"sum_hessian":[2.7486639E4,1.992281E4,7.5638296E3,6.682249E2,6.8956045E3],"tree_param":{"num_deleted":"0","num_feature":"51","num_nodes":"5","size_leaf_vector":"1"}},{"base_weights":[2.7087292E-1,5.651724E-1,-7.6926135E-2,9.858914E-2,-2.3877833E-2,-7.689452E-2,9.857582E-2],"categories":[],"categories_nodes":[],"categories_segments":[],"categories_sizes":[],"default_left":[0,0,0,0,0,0,0],"id":8,"left_children":[1,3,-1,-1,5,-1,-1],"loss_changes":[1.028859E4,6.492421E3,0E0,0E0,8.212396E3,0E0,0E0],"parents":[2147483647,0,0,1,1,4,4],"right_children":[2,4,-1,-1,6,-1,-1],"split_conditions":[1.4115094E0,1.0467054E0,-7.6926135E-2,9.858914E-2,1.0688119E0,-7.689452E-2,9.857582E-2],"split_indices":[50,0,0,0,1,0,0],"split_type":[0,0,0,0,0,0,0],"sum_hessian":[3.360824E4,2.6196549E4,7.411692E3,1.5281398E4,1.0915149E4,6.2805874E3,4.6345615E3],"tree_param":{"num_deleted":"0","num_feature":"51","num_nodes":"7","size_leaf_vector":"1"}},{"base_weights":[-1.4186372E-1,-5.377719E-1,3.2860768E-1,1.11456394E-1,-6.481356E-1,9.831486E-1,-6.503045E-2,-6.4884655E-2,9.781062E-2,1.11546256E-1,-6.463676E-2],"categories":[],"categories_nodes":[],"categories_segments":[],"categories_sizes":[],"default_left":[0,0,0,0,0,0,0,0,0,0,0],"id":9,"left_children":[1,3,5,-1,7,9,-1,-1,-1,-1,-1],"loss_changes":[5.021894E3,2.670565E3,7.8949326E3,0E0,1.6502441E1,1.5927739E3,0E0,0E0,0E0,0E0,0E0],"parents":[2147483647,0,0,1,1,2,2,4,4,5,5],"right_children":[2,4,6,-1,8,10,-1,-1,-1,-1,-1],"split_conditions":[1.0476162E0,-8.801815E-1,-2.6869372E-1,1.11456394E-1,1.0335872E0,1.3452916E0,-6.503045E-2,-6.4884655E-2,9.781062E-2,1.11546256E-1,-6.463676E-2],"split_indices":[38,38,50,0,48,0,0,0,0,0,0],"split_type":[0,0,0,0,0,0,0,0,0,0,0],"sum_hessian":[2.6959293E4,1.4639668E4,1.2319625E4,9.160293E2,1.3723639E4,7.383026E3,4.936599E3,1.3718242E4,5.396074E0,6.8288506E3,5.5417566E2],"tree_param":{"num_deleted":"0","num_feature":"51","num_nodes":"11","size_leaf_vector":"1"}},{"base_weights":[-1.7056212E-1,-6.459546E-2,9.814687E-1,-6.4960055E-2,1.126702E-1],"categories":[],"categories_nodes":[],"categories_segments":[],"categories_sizes":[],"default_left":[0,0,0,0,0],"id":10,"left_children":[1,-1,3,-1,-1],"loss_changes":[1.4539881E4,0E0,1.837853E3,0E0,0E0],"parents":[2147483647,0,0,2,2],"right_children":[2,-1,4,-1,-1],"split_conditions":[1.6215347E0,-6.459546E-2,-8.768976E-1,-6.4960055E-2,1.126702E-1],"split_indices":[50,0,0,0,0],"split_type":[0,0,0,0,0],"sum_hessian":[2.6546615E4,1.8792299E4,7.7543164E3,6.337208E2,7.1205957E3],"tree_param":{"num_deleted":"0","num_feature":"51","num_nodes":"5","size_leaf_vector":"1"}},{"base_weights":[2.543192E-1,5.2725923E-1,-7.359219E-2,9.119525E-2,-2.2098936E-2,-7.355446E-2,9.118197E-2],"categories":[],"categories_nodes":[],"categories_segments":[],"categories_sizes":[],"default_left":[0,0,0,0,0,0,0],"id":11,"left_children":[1,3,-1,-1,5,-1,-1],"loss_changes":[8.877186E3,5.4413286E3,0E0,0E0,7.066888E3,0E0,0E0],"parents":[2147483647,0,0,1,1,4,4],"right_children":[2,4,-1,-1,6,-1,-1],"split_conditions":[1.4115094E0,1.0467054E0,-7.359219E-2,9.119525E-2,1.0688119E0,-7.355446E-2,9.118197E-2],"split_indices":[50,0,0,0,1,0,0],"split_type":[0,0,0,0,0,0,0],"sum_hessian":[3.2842402E4,2.5746393E4,7.096008E3,1.5142237E4,1.0604155E4,6.011795E3,4.5923604E3],"tree_param":{"num_deleted":"0","num_feature":"51","num_nodes":"7","size_leaf_vector":"1"}},{"base_weights":[-1.3521767E-1,-5.222081E-1,3.0799252E-1,1.0125237E-1,-6.324727E-1,8.981426E-1,-6.347837E-2,-6.331917E-2,8.944216E-2,1.0133821E-1,-6.305478E-2],"categories":[],"categories_nodes":[],"categories_segments":[],"categories_sizes":[],"default_left":[0,0,0,0,0,0,0,0,0,0,0],"id":12,"left_children":[1,3,5,-1,7,9,-1,-1,-1,-1,-1],"loss_changes":[4.4405557E3,2.339578E3,6.7152075E3,0E0,1.4722656E1,1.3082656E3,0E0,0E0,0E0,0E0,0E0],"parents":[2147483647,0,0,1,1,2,2,4,4,5,5],"right_children":[2,4,6,-1,8,10,-1,-1,-1,-1,-1],"split_conditions":[1.0476162E0,-8.801815E-1,-2.6869372E-1,1.0125237E-1,1.0335872E0,1.3452916E0,-6.347837E-2,-6.331917E-2,8.944216E-2,1.0133821E-1,-6.305478E-2],"split_indices":[38,38,50,0,48,0,0,0,0,0,0],"split_type":[0,0,0,0,0,0,0,0,0,0,0],"sum_hessian":[2.5887783E4,1.3820335E4,1.2067449E4,9.258329E2,1.2894502E4,7.421719E3,4.64573E3,1.2889019E4,5.483725E0,6.90177E3,5.1994916E2],"tree_param":{"num_deleted":"0","num_feature":"51","num_nodes":"11","size_leaf_vector":"1"}},{"base_weights":[-1.629366E-1,-6.3076824E-2,8.950353E-1,-6.347816E-2,1.0221004E-1],"categories":[],"categories_nodes":[],"categories_segments":[],"categories_sizes":[],"default_left":[0,0,0,0,0],"id":13,"left_children":[1,-1,3,-1,-1],"loss_changes":[1.2604005E4,0E0,1.5184146E3,0E0,0E0],"parents":[2147483647,0,0,2,2],"right_children":[2,-1,4,-1,-1],"split_conditions":[1.6215347E0,-6.3076824E-2,-8.768976E-1,-6.347816E-2,1.0221004E-1],"split_indices":[50,0,0,0,0],"split_type":[0,0,0,0,0],"sum_hessian":[2.5462926E4,1.7655934E4,7.806991E3,5.9840576E2,7.2085854E3],"tree_param":{"num_deleted":"0","num_feature":"51","num_nodes":"5","size_leaf_vector":"1"}},{"base_weights":[2.4056627E-1,4.9624434E-1,-7.075248E-2,8.5246615E-2,-2.0746268E-2,-7.071198E-2,8.523294E-2],"categories":[],"categories_nodes":[],"categories_segments":[],"categories_sizes":[],"default_left":[0,0,0,0,0,0,0],"id":14,"left_children":[1,3,-1,-1,5,-1,-1],"loss_changes":[7.708479E3,4.612402E3,0E0,0E0,6.123781E3,0E0,0E0],"parents":[2147483647,0,0,1,1,4,4],"right_children":[2,4,-1,-1,6,-1,-1],"split_conditions":[1.4115094E0,1.0467054E0,-7.075248E-2,8.5246615E-2,1.0688119E0,-7.071198E-2,8.523294E-2],"split_indices":[50,0,0,0,1,0,0],"split_type":[0,0,0,0,0,0,0],"sum_hessian":[3.1797408E4,2.504408E4,6.753328E3,1.4827113E4,1.0216967E4,5.720194E3,4.4967734E3],"tree_param":{"num_deleted":"0","num_feature":"51","num_nodes":"7","size_leaf_vector":"1"}},{"base_weights":[-1.2950595E-1,-5.0847983E-1,2.9099378E-1,9.327748E-2,-6.1854917E-1,8.310843E-1,-6.209088E-2,-6.192757E-2,8.261631E-2,9.336204E-2,-6.1654057E-2],"categories":[],"categories_nodes":[],"categories_segments":[],"categories_sizes":[],"default_left":[0,0,0,0,0,0,0,0,0,0,0],"id":15,"left_children":[1,3,5,-1,7,9,-1,-1,-1,-1,-1],"loss_changes":[3.9369404E3,2.0619116E3,5.76833E3,0E0,1.3184082E1,1.0923633E3,0E0,0E0,0E0,0E0,0E0],"parents":[2147483647,0,0,1,1,2,2,4,4,5,5],"right_children":[2,4,6,-1,8,10,-1,-1,-1,-1,-1],"split_conditions":[1.0476162E0,-8.801815E-1,-2.6869372E-1,9.327748E-2,1.0335872E0,1.3452916E0,-6.209088E-2,-6.192757E-2,8.261631E-2,9.336204E-2,-6.1654057E-2],"split_indices":[38,38,50,0,48,0,0,0,0,0,0],"split_type":[0,0,0,0,0,0,0,0,0,0,0],"sum_hessian":[2.4703016E4,1.2992954E4,1.1710062E4,9.213441E2,1.2071609E4,7.354385E3,4.355677E3,1.2066112E4,5.496804E0,6.8682573E3,4.8612735E2],"tree_param":{"num_deleted":"0","num_feature":"51","num_nodes":"11","size_leaf_vector":"1"}},{"base_weights":[-1.5635802E-1,-6.1723053E-2,8.269975E-1,-6.2132724E-2,9.405451E-2],"categories":[],"categories_nodes":[],"categories_segments":[],"categories_sizes":[],"default_left":[0,0,0,0,0],"id":16,"left_children":[1,-1,3,-1,-1],"loss_changes":[1.1002301E4,0E0,1.2746299E3,0E0,0E0],"parents":[2147483647,0,0,2,2],"right_children":[2,-1,4,-1,-1],"split_conditions":[1.6215347E0,-6.1723053E-2,-8.768976E-1,-6.2132724E-2,9.405451E-2],"split_indices":[50,0,0,0,0],"split_type":[0,0,0,0,0],"sum_hessian":[2.4274713E4,1.652858E4,7.7461323E3,5.6281604E2,7.183316E3],"tree_param":{"num_deleted":"0","num_feature":"51","num_nodes":"5","size_leaf_vector":"1"}},{"base_weights":[2.2902185E-1,4.7053954E-1,-6.831495E-2,8.03836E-2,-1.9695934E-2,-6.827378E-2,8.036944E-2],"categories":[],"categories_nodes":[],"categories_segments":[],"categories_sizes":[],"default_left":[0,0,0,0,0,0,0],"id":17,"left_children":[1,3,-1,-1,5,-1,-1],"loss_changes":[6.729117E3,3.945912E3,0E0,0E0,5.3369756E3,0E0,0E0],"parents":[2147483647,0,0,1,1,4,4],"right_children":[2,4,-1,-1,6,-1,-1],"split_conditions":[1.4115094E0,1.0467054E0,-6.831495E-2,8.03836E-2,1.0688119E0,-6.827378E-2,8.036944E-2],"split_indices":[50,0,0,0,1,0,0],"split_type":[0,0,0,0,0,0,0],"sum_hessian":[3.0542018E4,2.4148617E4,6.3934004E3,1.4374907E4,9.773709E3,5.4141167E3,4.359592E3],"tree_param":{"num_deleted":"0","num_feature":"51","num_nodes":"7","size_leaf_vector":"1"}},{"base_weights":[-1.24574214E-1,-4.9634957E-1,2.768124E-1,8.690726E-2,-6.0616076E-1,7.771179E-1,-6.0850766E-2,-6.0689468E-2,7.695202E-2,8.699169E-2,-6.041131E-2],"categories":[],"categories_nodes":[],"categories_segments":[],"categories_sizes":[],"default_left":[0,0,0,0,0,0,0,0,0,0,0],"id":18,"left_children":[1,3,5,-1,7,9,-1,-1,-1,-1,-1],"loss_changes":[3.4983394E3,1.8253464E3,4.99359E3,0E0,1.1840332E1,9.237905E2,0E0,0E0,0E0,0E0,0E0],"parents":[2147483647,0,0,1,1,2,2,4,4,5,5],"right_children":[2,4,6,-1,8,10,-1,-1,-1,-1,-1],"split_conditions":[1.0476162E0,-8.801815E-1,-2.6869372E-1,8.690726E-2,1.0335872E0,1.3452916E0,-6.0850766E-2,-6.0689468E-2,7.695202E-2,8.699169E-2,-6.041131E-2],"split_indices":[38,38,50,0,48,0,0,0,0,0,0],"split_type":[0,0,0,0,0,0,0,0,0,0,0],"sum_hessian":[2.3441361E4,1.2169446E4,1.1271914E4,9.0533624E2,1.126411E4,7.202061E3,4.069853E3,1.1258663E4,5.447232E0,6.748995E3,4.5306567E2],"tree_param":{"num_deleted":"0","num_feature":"51","num_nodes":"11","size_leaf_vector":"1"}},{"base_weights":[-1.506592E-1,-6.0515758E-2,7.7234054E-1,-6.091507E-2,8.755215E-2],"categories":[],"categories_nodes":[],"categories_segments":[],"categories_sizes":[],"default_left":[0,0,0,0,0],"id":19,"left_children":[1,-1,3,-1,-1],"loss_changes":[9.656382E3,0E0,1.083147E3,0E0,0E0],"parents":[2147483647,0,0,2,2],"right_children":[2,-1,4,-1,-1],"split_conditions":[1.6215347E0,-6.0515758E-2,-8.768976E-1,-6.091507E-2,8.755215E-2],"split_indices":[50,0,0,0,0],"split_type":[0,0,0,0,0],"sum_hessian":[2.3016572E4,1.54226045E4,7.5939673E3,5.2742065E2,7.066547E3],"tree_param":{"num_deleted":"0","num_feature":"51","num_nodes":"5","size_leaf_vector":"1"}},{"base_weights":[2.1924545E-1,4.4900182E-1,-6.620928E-2,7.6355256E-2,-1.8866055E-2,-6.616881E-2,7.6340616E-2],"categories":[],"categories_nodes":[],"categories_segments":[],"categories_sizes":[],"default_left":[0,0,0,0,0,0,0],"id":20,"left_children":[1,3,-1,-1,5,-1,-1],"loss_changes":[5.9003086E3,3.4014268E3,0E0,0E0,4.673454E3,0E0,0E0],"parents":[2147483647,0,0,1,1,4,4],"right_children":[2,4,-1,-1,6,-1,-1],"split_conditions":[1.4115094E0,1.0467054E0,-6.620928E-2,7.6355256E-2,1.0688119E0,-6.616881E-2,7.6340616E-2],"split_indices":[50,0,0,0,1,0,0],"split_type":[0,0,0,0,0,0,0],"sum_hessian":[2.913585E4,2.3111416E4,6.0244326E3,1.3819705E4,9.291712E3,5.100553E3,4.191159E3],"tree_param":{"num_deleted":"0","num_feature":"51","num_nodes":"7","size_leaf_vector":"1"}},{"base_weights":[-1.2029735E-1,-4.856127E-1,2.6486456E-1,8.172888E-2,-5.951274E-1,7.329811E-1,-5.9742194E-2,-5.958684E-2,7.217916E-2,8.1813686E-2,-5.930657E-2],"categories":[],"categories_nodes":[],"categories_segments":[],"categories_sizes":[],"default_left":[0,0,0,0,0,0,0,0,0,0,0],"id":21,"left_children":[1,3,5,-1,7,9,-1,-1,-1,-1,-1],"loss_changes":[3.1146772E3,1.6215015E3,4.350003E3,0E0,1.0658203E1,7.8918066E2,0E0,0E0,0E0,0E0,0E0],"parents":[2147483647,0,0,1,1,2,2,4,4,5,5],"right_children":[2,4,6,-1,8,10,-1,-1,-1,-1,-1],"split_conditions":[1.0476162E0,-8.801815E-1,-2.6869372E-1,8.172888E-2,1.0335872E0,1.3452916E0,-5.9742194E-2,-5.958684E-2,7.217916E-2,8.1813686E-2,-5.930657E-2],"split_indices":[38,38,50,0,48,0,0,0,0,0,0],"split_type":[0,0,0,0,0,0,0,0,0,0,0],"sum_hessian":[2.213422E4,1.1359648E4,1.0774571E4,8.8029333E2,1.0479355E4,6.9835205E3,3.7910505E3,1.0474009E4,5.3463597E0,6.562476E3,4.210445E2],"tree_param":{"num_deleted":"0","num_feature":"51","num_nodes":"11","size_leaf_vector":"1"}},{"base_weights":[-1.4570358E-1,-5.9438474E-2,7.2770596E-1,-5.9815317E-2,8.2274266E-2],"categories":[],"categories_nodes":[],"categories_segments":[],"categories_sizes":[],"default_left":[0,0,0,0,0],"id":22,"left_children":[1,-1,3,-1,-1],"loss_changes":[8.511868E3,0E0,9.293274E2,0E0,0E0],"parents":[2147483647,0,0,2,2],"right_children":[2,-1,4,-1,-1],"split_conditions":[1.6215347E0,-5.9438474E-2,-8.768976E-1,-5.9815317E-2,8.2274266E-2],"split_indices":[50,0,0,0,0],"split_type":[0,0,0,0,0],"sum_hessian":[2.1718363E4,1.434796E4,7.370403E3,4.9261575E2,6.877787E3],"tree_param":{"num_deleted":"0","num_feature":"51","num_nodes":"5","size_leaf_vector":"1"}},{"base_weights":[2.1090336E-1,4.3078804E-1,-6.438055E-2,7.298123E-2,-1.8200276E-2,-6.434157E-2,7.2966166E-2],"categories":[],"categories_nodes":[],"categories_segments":[],"categories_sizes":[],"default_left":[0,0,0,0,0,0,0],"id":23,"left_children":[1,3,-1,-1,5,-1,-1],"loss_changes":[5.193109E3,2.9506677E3,0E0,0E0,4.1088794E3,0E0,0E0],"parents":[2147483647,0,0,1,1,4,4],"right_children":[2,4,-1,-1,6,-1,-1],"split_conditions":[1.4115094E0,1.0467054E0,-6.438055E-2,7.298123E-2,1.0688119E0,-6.434157E-2,7.2966166E-2],"split_indices":[50,0,0,0,1,0,0],"split_type":[0,0,0,0,0,0,0],"sum_hessian":[2.7629648E4,2.197643E4,5.653219E3,1.3190793E4,8.785638E3,4.785272E3,4.0003655E3],"tree_param":{"num_deleted":"0","num_feature":"51","num_nodes":"7","size_leaf_vector":"1"}},{"base_weights":[-1.16573595E-1,-4.7609288E-1,2.5471365E-1,7.7458486E-2,-5.852906E-1,6.9640046E-1,-5.8750875E-2,-5.8603883E-2,6.810134E-2,7.7543914E-2,-5.832261E-2],"categories":[],"categories_nodes":[],"categories_segments":[],"categories_sizes":[],"default_left":[0,0,0,0,0,0,0,0,0,0,0],"id":24,"left_children":[1,3,5,-1,7,9,-1,-1,-1,-1,-1],"loss_changes":[2.7778206E3,1.444343E3,3.8088013E3,0E0,9.612305E0,6.7972705E2,0E0,0E0,0E0,0E0,0E0],"parents":[2147483647,0,0,1,1,2,2,4,4,5,5],"right_children":[2,4,6,-1,8,10,-1,-1,-1,-1,-1],"split_conditions":[1.0476162E0,-8.801815E-1,-2.6869372E-1,7.7458486E-2,1.0335872E0,1.3452916E0,-5.8750875E-2,-5.8603883E-2,6.810134E-2,7.7543914E-2,-5.832261E-2],"split_indices":[38,38,50,0,48,0,0,0,0,0,0],"split_type":[0,0,0,0,0,0,0,0,0,0,0],"sum_hessian":[2.0808086E4,1.0571433E4,1.0236653E4,8.4839484E2,9.723038E3,6.715182E3,3.521471E3,9.717833E3,5.2046356E0,6.324906E3,3.9027652E2],"tree_param":{"num_deleted":"0","num_feature":"51","num_nodes":"11","size_leaf_vector":"1"}},{"base_weights":[-1.4137876E-1,-5.8476526E-2,6.907602E-1,-5.8823247E-2,7.792723E-2],"categories":[],"categories_nodes":[],"categories_segments":[],"categories_sizes":[],"default_left":[0,0,0,0,0],"id":25,"left_children":[1,-1,3,-1,-1],"loss_changes":[7.529483E3,0E0,8.035325E2,0E0,0E0],"parents":[2147483647,0,0,2,2],"right_children":[2,-1,4,-1,-1],"split_conditions":[1.6215347E0,-5.8476526E-2,-8.768976E-1,-5.8823247E-2,7.792723E-2],"split_indices":[50,0,0,0,0],"split_type":[0,0,0,0,0],"sum_hessian":[2.0405264E4,1.3312367E4,7.0928975E3,4.5872427E2,6.6341733E3],"tree_param":{"num_deleted":"0","num_feature":"51","num_nodes":"5","size_leaf_vector":"1"}},{"base_weights":[2.0373827E-1,4.1526297E-1,-6.278503E-2,7.0128694E-2,-1.7659081E-2,-6.2747985E-2,7.011322E-2],"categories":[],"categories_nodes":[],"categories_segments":[],"categories_sizes":[],"default_left":[0,0,0,0,0,0,0],"id":26,"left_children":[1,3,-1,-1,5,-1,-1],"loss_changes":[4.585449E3,2.5733057E3,0E0,0E0,3.6248684E3,0E0,0E0],"parents":[2147483647,0,0,1,1,4,4],"right_children":[2,4,-1,-1,6,-1,-1],"split_conditions":[1.4115094E0,1.0467054E0,-6.278503E-2,7.0128694E-2,1.0688119E0,-6.2747985E-2,7.011322E-2],"split_indices":[50,0,0,0,1,0,0],"split_type":[0,0,0,0,0,0,0],"sum_hessian":[2.6065791E4,2.0780514E4,5.285277E3,1.2512865E4,8.267649E3,4.4729424E3,3.7947065E3],"tree_param":{"num_deleted":"0","num_feature":"51","num_nodes":"7","size_leaf_vector":"1"}},{"base_weights":[-1.13319404E-1,-4.6763825E-1,2.4602704E-1,7.3894516E-2,-5.765116E-1,6.657443E-1,-5.7863917E-2,-5.7726707E-2,6.457265E-2,7.398083E-2,-5.744455E-2],"categories":[],"categories_nodes":[],"categories_segments":[],"categories_sizes":[],"default_left":[0,0,0,0,0,0,0,0,0,0,0],"id":27,"left_children":[1,3,5,-1,7,9,-1,-1,-1,-1,-1],"loss_changes":[2.4811106E3,1.289362E3,3.3491333E3,0E0,8.68335E0,5.8940186E2,0E0,0E0,0E0,0E0,0E0],"parents":[2147483647,0,0,1,1,2,2,4,4,5,5],"right_children":[2,4,6,-1,8,10,-1,-1,-1,-1,-1],"split_conditions":[1.0476162E0,-8.801815E-1,-2.6869372E-1,7.3894516E-2,1.0335872E0,1.3452916E0,-5.7863917E-2,-5.7726707E-2,6.457265E-2,7.398083E-2,-5.744455E-2],"split_indices":[38,38,50,0,48,0,0,0,0,0,0],"split_type":[0,0,0,0,0,0,0,0,0,0,0],"sum_hessian":[1.9484807E4,9.810885E3,9.673923E3,8.115158E2,8.999369E3,6.4111396E3,3.262783E3,8.994337E3,5.0314293E0,6.0502246E3,3.609152E2],"tree_param":{"num_deleted":"0","num_feature":"51","num_nodes":"11","size_leaf_vector":"1"}},{"base_weights":[-1.3759203E-1,-5.7616908E-2,6.5983176E-1,-5.7928838E-2,7.43032E-2],"categories":[],"categories_nodes":[],"categories_segments":[],"categories_sizes":[],"default_left":[0,0,0,0,0],"id":28,"left_children":[1,-1,3,-1,-1],"loss_changes":[6.679915E3,0E0,6.991553E2,0E0,0E0],"parents":[2147483647,0,0,2,2],"right_children":[2,-1,4,-1,-1],"split_conditions":[1.6215347E0,-5.7616908E-2,-8.768976E-1,-5.7928838E-2,7.43032E-2],"split_indices":[50,0,0,0,0],"split_type":[0,0,0,0,0],"sum_hessian":[1.9098021E4,1.2321543E4,6.776478E3,4.2600027E2,6.350478E3],"tree_param":{"num_deleted":"0","num_feature":"51","num_nodes":"5","size_leaf_vector":"1"}},{"base_weights":[1.9754857E-1,4.0193897E-1,-6.1387457E-2,6.769764E-2,-1.7213909E-2,-6.1352562E-2,6.7681804E-2],"categories":[],"categories_nodes":[],"categories_segments":[],"categories_sizes":[],"default_left":[0,0,0,0,0,0,0],"id":29,"left_children":[1,3,-1,-1,5,-1,-1],"loss_changes":[4.0601858E3,2.254368E3,0E0,0E0,3.2072686E3,0E0,0E0],"parents":[2147483647,0,0,1,1,4,4],"right_children":[2,4,-1,-1,6,-1,-1],"split_conditions":[1.4115094E0,1.0467054E0,-6.1387457E-2,6.769764E-2,1.0688119E0,-6.1352562E-2,6.7681804E-2],"split_indices":[50,0,0,0,1,0,0],"split_type":[0,0,0,0,0,0,0],"sum_hessian":[2.4479014E4,1.955403E4,4.9249844E3,1.1806374E4,7.747655E3,4.167262E3,3.5803926E3],"tree_param":{"num_deleted":"0","num_feature":"51","num_nodes":"7","size_leaf_vector":"1"}},{"base_weights":[-1.1046615E-1,-4.601177E-1,2.385465E-1,7.088996E-2,-5.686685E-1,6.398105E-1,-5.7069838E-2,-5.6943126E-2,6.148253E-2,7.097741E-2,-5.6659486E-2],"categories":[],"categories_nodes":[],"categories_segments":[],"categories_sizes":[],"default_left":[0,0,0,0,0,0,0,0,0,0,0],"id":30,"left_children":[1,3,5,-1,7,9,-1,-1,-1,-1,-1],"loss_changes":[2.219029E3,1.1530798E3,2.9554731E3,0E0,7.854248E0,5.1394214E2,0E0,0E0,0E0,0E0,0E0],"parents":[2147483647,0,0,1,1,2,2,4,4,5,5],"right_children":[2,4,6,-1,8,10,-1,-1,-1,-1,-1],"split_conditions":[1.0476162E0,-8.801815E-1,-2.6869372E-1,7.088996E-2,1.0335872E0,1.3452916E0,-5.7069838E-2,-5.6943126E-2,6.148253E-2,7.097741E-2,-5.6659486E-2],"split_indices":[38,38,50,0,48,0,0,0,0,0,0],"split_type":[0,0,0,0,0,0,0,0,0,0,0],"sum_hessian":[1.818197E4,9.082513E3,9.099457E3,7.712414E2,8.311271E3,6.0832754E3,3.016182E3,8.306437E3,4.834957E0,5.7502124E3,3.3306317E2],"tree_param":{"num_deleted":"0","num_feature":"51","num_nodes":"11","size_leaf_vector":"1"}},{"base_weights":[-1.3426633E-1,-5.6848116E-2,6.336923E-1,-5.7122566E-2,7.125098E-2],"categories":[],"categories_nodes":[],"categories_segments":[],"categories_sizes":[],"default_left":[0,0,0,0,0],"id":31,"left_children":[1,-1,3,-1,-1],"loss_changes":[5.940699E3,0E0,6.115154E2,0E0,0E0],"parents":[2147483647,0,0,2,2],"right_children":[2,-1,4,-1,-1],"split_conditions":[1.6215347E0,-5.6848116E-2,-8.768976E-1,-5.7122566E-2,7.125098E-2],"split_indices":[50,0,0,0,0],"split_type":[0,0,0,0,0],"sum_hessian":[1.78133E4,1.1379454E4,6.4338467E3,3.9463516E2,6.0392114E3],"tree_param":{"num_deleted":"0","num_feature":"51","num_nodes":"5","size_leaf_vector":"1"}},{"base_weights":[1.9217473E-1,3.9043632E-1,-6.0159005E-2,6.5611474E-2,-1.6843809E-2,-6.012633E-2,6.559527E-2],"categories":[],"categories_nodes":[],"categories_segments":[],"categories_sizes":[],"default_left":[0,0,0,0,0,0,0],"id":32,"left_children":[1,3,-1,-1,5,-1,-1],"loss_changes":[3.6038003E3,1.9826082E3,0E0,0E0,2.8449856E3,0E0,0E0],"parents":[2147483647,0,0,1,1,4,4],"right_children":[2,4,-1,-1,6,-1,-1],"split_conditions":[1.4115094E0,1.0467054E0,-6.0159005E-2,6.5611474E-2,1.0688119E0,-6.012633E-2,6.559527E-2],"split_indices":[50,0,0,0,1,0,0],"split_type":[0,0,0,0,0,0,0],"sum_hessian":[2.2897234E4,1.832151E4,4.5757236E3,1.1087962E4,7.233549E3,3.8710754E3,3.3624734E3],"tree_param":{"num_deleted":"0","num_feature":"51","num_nodes":"7","size_leaf_vector":"1"}},{"base_weights":[-1.0795681E-1,-4.5341778E-1,2.320691E-1,6.833512E-2,-5.6165415E-1,6.1769503E-1,-5.6358404E-2,-5.6242462E-2,5.8745887E-2,6.842405E-2,-5.5956215E-2],"categories":[],"categories_nodes":[],"categories_segments":[],"categories_sizes":[],"default_left":[0,0,0,0,0,0,0,0,0,0,0],"id":33,"left_children":[1,3,5,-1,7,9,-1,-1,-1,-1,-1],"loss_changes":[1.9869619E3,1.0327445E3,2.6159949E3,0E0,7.112793E0,4.5025244E2,0E0,0E0,0E0,0E0,0E0],"parents":[2147483647,0,0,1,1,2,2,4,4,5,5],"right_children":[2,4,6,-1,8,10,-1,-1,-1,-1,-1],"split_conditions":[1.0476162E0,-8.801815E-1,-2.6869372E-1,6.833512E-2,1.0335872E0,1.3452916E0,-5.6358404E-2,-5.6242462E-2,5.8745887E-2,6.842405E-2,-5.5956215E-2],"split_indices":[38,38,50,0,48,0,0,0,0,0,0],"split_type":[0,0,0,0,0,0,0,0,0,0,0],"sum_hessian":[1.691336E4,8.389463E3,8.5238955E3,7.2888837E2,7.6605747E3,5.7414395E3,2.782456E3,7.6559526E3,4.622289E0,5.434659E3,3.0678024E2],"tree_param":{"num_deleted":"0","num_feature":"51","num_nodes":"11","size_leaf_vector":"1"}},{"base_weights":[-1.3133745E-1,-5.6159973E-2,6.114198E-1,-5.6395542E-2,6.8658E-2],"categories":[],"categories_nodes":[],"categories_segments":[],"categories_sizes":[],"default_left":[0,0,0,0,0],"id":34,"left_children":[1,-1,3,-1,-1],"loss_changes":[5.294239E3,0E0,5.371987E2,0E0,0E0],"parents":[2147483647,0,0,2,2],"right_children":[2,-1,4,-1,-1],"split_conditions":[1.6215347E0,-5.6159973E-2,-8.768976E-1,-5.6395542E-2,6.8658E-2],"split_indices":[50,0,0,0,0],"split_type":[0,0,0,0,0],"sum_hessian":[1.6564143E4,1.0488588E4,6.0755547E3,3.6476468E2,5.71079E3],"tree_param":{"num_deleted":"0","num_feature":"51","num_nodes":"5","size_leaf_vector":"1"}},{"base_weights":[1.8748863E-1,3.8045463E-1,-5.90759E-2,6.381055E-2,-1.6533244E-2,-5.9045393E-2,6.379392E-2],"categories":[],"categories_nodes":[],"categories_segments":[],"categories_sizes":[],"default_left":[0,0,0,0,0,0,0],"id":35,"left_children":[1,3,-1,-1,5,-1,-1],"loss_changes":[3.205477E3,1.7494175E3,0E0,0E0,2.5291975E3,0E0,0E0],"parents":[2147483647,0,0,1,1,4,4],"right_children":[2,4,-1,-1,6,-1,-1],"split_conditions":[1.4115094E0,1.0467054E0,-5.90759E-2,6.381055E-2,1.0688119E0,-5.9045393E-2,6.379392E-2],"split_indices":[50,0,0,0,1,0,0],"split_type":[0,0,0,0,0,0,0],"sum_hessian":[2.13424E4,1.7102385E4,4.2400146E3,1.0370909E4,6.731476E3,3.5864983E3,3.1449778E3],"tree_param":{"num_deleted":"0","num_feature":"51","num_nodes":"7","size_leaf_vector":"1"}},{"base_weights":[-1.0574362E-1,-4.4744024E-1,2.2643343E-1,6.614657E-2,-5.5537486E-1,5.9870535E-1,-5.5720545E-2,-5.5615317E-2,5.6296177E-2,6.623739E-2,-5.5324968E-2],"categories":[],"categories_nodes":[],"categories_segments":[],"categories_sizes":[],"default_left":[0,0,0,0,0,0,0,0,0,0,0],"id":36,"left_children":[1,3,5,-1,7,9,-1,-1,-1,-1,-1],"loss_changes":[1.7810254E3,9.261317E2,2.3215188E3,0E0,6.4484863E0,3.960282E2,0E0,0E0,0E0,0E0,0E0],"parents":[2147483647,0,0,1,1,2,2,4,4,5,5],"right_children":[2,4,6,-1,8,10,-1,-1,-1,-1,-1],"split_conditions":[1.0476162E0,-8.801815E-1,-2.6869372E-1,6.614657E-2,1.0335872E0,1.3452916E0,-5.5720545E-2,-5.5615317E-2,5.6296177E-2,6.623739E-2,-5.5324968E-2],"split_indices":[38,38,50,0,48,0,0,0,0,0,0],"split_type":[0,0,0,0,0,0,0,0,0,0,0],"sum_hessian":[1.5689439E4,7.733729E3,7.955711E3,6.855323E2,7.048197E3,5.393659E3,2.5620515E3,7.0437974E3,4.399402E0,5.111568E3,2.8209113E2],"tree_param":{"num_deleted":"0","num_feature":"51","num_nodes":"11","size_leaf_vector":"1"}},{"base_weights":[-1.2875153E-1,-5.554353E-2,5.923087E-1,-5.573961E-2,6.643878E-2],"categories":[],"categories_nodes":[],"categories_segments":[],"categories_sizes":[],"default_left":[0,0,0,0,0],"id":37,"left_children":[1,-1,3,-1,-1],"loss_changes":[4.7264907E3,0E0,4.736571E2,0E0,0E0],"parents":[2147483647,0,0,2,2],"right_children":[2,-1,4,-1,-1],"split_conditions":[1.6215347E0,-5.554353E-2,-8.768976E-1,-5.573961E-2,6.643878E-2],"split_indices":[50,0,0,0,0],"split_type":[0,0,0,0,0],"sum_hessian":[1.5360404E4,9.650185E3,5.710219E3,3.3647687E2,5.373742E3],"tree_param":{"num_deleted":"0","num_feature":"51","num_nodes":"5","size_leaf_vector":"1"}},{"base_weights":[1.8338591E-1,3.7175322E-1,-5.8118325E-2,6.2247723E-2,-1.6270356E-2,-5.8089893E-2,6.2230635E-2],"categories":[],"categories_nodes":[],"categories_segments":[],"categories_sizes":[],"default_left":[0,0,0,0,0,0,0],"id":38,"left_children":[1,3,-1,-1,5,-1,-1],"loss_changes":[2.856463E3,1.548103E3,0E0,0E0,2.252802E3,0E0,0E0],"parents":[2147483647,0,0,1,1,4,4],"right_children":[2,4,-1,-1,6,-1,-1],"split_conditions":[1.4115094E0,1.0467054E0,-5.8118325E-2,6.2247723E-2,1.0688119E0,-5.8089893E-2,6.2230635E-2],"split_indices":[50,0,0,0,1,0,0],"split_type":[0,0,0,0,0,0,0],"sum_hessian":[1.9831318E4,1.5911667E4,3.9196519E3,9.665582E3,6.2460845E3,3.31503E3,2.9310544E3],"tree_param":{"num_deleted":"0","num_feature":"51","num_nodes":"7","size_leaf_vector":"1"}},{"base_weights":[-1.0378677E-1,-4.4209984E-1,2.2150894E-1,6.4259656E-2,-5.497481E-1,5.823018E-1,-5.5148195E-2,-5.505347E-2,5.4080743E-2,6.435286E-2,-5.475719E-2],"categories":[],"categories_nodes":[],"categories_segments":[],"categories_sizes":[],"default_left":[0,0,0,0,0,0,0,0,0,0,0],"id":39,"left_children":[1,3,5,-1,7,9,-1,-1,-1,-1,-1],"loss_changes":[1.5979208E3,8.314154E2,2.0647957E3,0E0,5.852051E0,3.49521E2,0E0,0E0,0E0,0E0,0E0],"parents":[2147483647,0,0,1,1,2,2,4,4,5,5],"right_children":[2,4,6,-1,8,10,-1,-1,-1,-1,-1],"split_conditions":[1.0476162E0,-8.801815E-1,-2.6869372E-1,6.4259656E-2,1.0335872E0,1.3452916E0,-5.5148195E-2,-5.505347E-2,5.4080743E-2,6.435286E-2,-5.475719E-2],"split_indices":[38,38,50,0,48,0,0,0,0,0,0],"split_type":[0,0,0,0,0,0,0,0,0,0,0],"sum_hessian":[1.4517827E4,7.1163467E3,7.4014805E3,6.420356E2,6.474311E3,5.0463486E3,2.355132E3,6.4701396E3,4.1712604E0,4.7873564E3,2.5899216E2],"tree_param":{"num_deleted":"0","num_feature":"51","num_nodes":"11","size_leaf_vector":"1"}},{"base_weights":[-1.2646309E-1,-5.499087E-2,5.758103E-1,-5.514731E-2,6.452724E-2],"categories":[],"categories_nodes":[],"categories_segments":[],"categories_sizes":[],"default_left":[0,0,0,0,0],"id":40,"left_children":[1,-1,3,-1,-1],"loss_changes":[4.2260767E3,0E0,4.189464E2,0E0,0E0],"parents":[2147483647,0,0,2,2],"right_children":[2,-1,4,-1,-1],"split_conditions":[1.6215347E0,-5.499087E-2,-8.768976E-1,-5.514731E-2,6.452724E-2],"split_indices":[50,0,0,0,0],"split_type":[0,0,0,0,0],"sum_hessian":[1.4209225E4,8.8644795E3,5.3447456E3,3.0981967E2,5.034926E3],"tree_param":{"num_deleted":"0","num_feature":"51","num_nodes":"5","size_leaf_vector":"1"}},{"base_weights":[1.7978173E-1,3.6413777E-1,-5.726969E-2,6.088532E-2,-1.604601E-2,-5.724321E-2,6.0867693E-2],"categories":[],"categories_nodes":[],"categories_segments":[],"categories_sizes":[],"default_left":[0,0,0,0,0,0,0],"id":41,"left_children":[1,3,-1,-1,5,-1,-1],"loss_changes":[2.5496025E3,1.3733866E3,0E0,0E0,2.0100104E3,0E0,0E0],"parents":[2147483647,0,0,1,1,4,4],"right_children":[2,4,-1,-1,6,-1,-1],"split_conditions":[1.4115094E0,1.0467054E0,-5.726969E-2,6.088532E-2,1.0688119E0,-5.724321E-2,6.0867693E-2],"split_indices":[50,0,0,0,1,0,0],"split_type":[0,0,0,0,0,0,0],"sum_hessian":[1.8376459E4,1.4760643E4,3.6158171E3,8.979893E3,5.78075E3,3.0576511E3,2.7230989E3],"tree_param":{"num_deleted":"0","num_feature":"51","num_nodes":"7","size_leaf_vector":"1"}},{"base_weights":[-1.02052405E-1,-4.3732232E-1,2.171897E-1,6.262364E-2,-5.447015E-1,5.68058E-1,-5.4634243E-2,-5.454967E-2,5.2057464E-2,6.271979E-2,-5.424541E-2],"categories":[],"categories_nodes":[],"categories_segments":[],"categories_sizes":[],"default_left":[0,0,0,0,0,0,0,0,0,0,0],"id":42,"left_children":[1,3,5,-1,7,9,-1,-1,-1,-1,-1],"loss_changes":[1.434835E3,7.470731E2,1.8400192E3,0E0,5.3153076E0,3.0937927E2,0E0,0E0,0E0,0E0,0E0],"parents":[2147483647,0,0,1,1,2,2,4,4,5,5],"right_children":[2,4,6,-1,8,10,-1,-1,-1,-1,-1],"split_conditions":[1.0476162E0,-8.801815E-1,-2.6869372E-1,6.262364E-2,1.0335872E0,1.3452916E0,-5.4634243E-2,-5.454967E-2,5.2057464E-2,6.271979E-2,-5.424541E-2],"split_indices":[38,38,50,0,48,0,0,0,0,0,0],"split_type":[0,0,0,0,0,0,0,0,0,0,0],"sum_hessian":[1.3403742E4,6.537574E3,6.866168E3,5.990759E2,5.938498E3,4.7045347E3,2.1616333E3,5.934556E3,3.941917E0,4.467077E3,2.3745746E2],"tree_param":{"num_deleted":"0","num_feature":"51","num_nodes":"11","size_leaf_vector":"1"}},{"base_weights":[-1.2443374E-1,-5.4495014E-2,5.614916E-1,-5.4611873E-2,6.2871546E-2],"categories":[],"categories_nodes":[],"categories_segments":[],"categories_sizes":[],"default_left":[0,0,0,0,0],"id":43,"left_children":[1,-1,3,-1,-1],"loss_changes":[3.7836511E3,0E0,3.71557E2,0E0,0E0],"parents":[2147483647,0,0,2,2],"right_children":[2,-1,4,-1,-1],"split_conditions":[1.6215347E0,-5.4495014E-2,-8.768976E-1,-5.4611873E-2,6.2871546E-2],"split_indices":[50,0,0,0,0],"split_type":[0,0,0,0,0],"sum_hessian":[1.3115446E4,8.130892E3,4.9845547E3,2.8480804E2,4.6997466E3],"tree_param":{"num_deleted":"0","num_feature":"51","num_nodes":"5","size_leaf_vector":"1"}},{"base_weights":[1.7660545E-1,3.57449E-1,-5.651595E-2,5.9692867E-2,-1.5853142E-2,-5.6491267E-2,5.96746E-2],"categories":[],"categories_nodes":[],"categories_segments":[],"categories_sizes":[],"default_left":[0,0,0,0,0,0,0],"id":44,"left_children":[1,3,-1,-1,5,-1,-1],"loss_changes":[2.278984E3,1.221052E3,0E0,0E0,1.796061E3,0E0,0E0],"parents":[2147483647,0,0,1,1,4,4],"right_children":[2,4,-1,-1,6,-1,-1],"split_conditions":[1.4115094E0,1.0467054E0,-5.651595E-2,5.9692867E-2,1.0688119E0,-5.6491267E-2,5.96746E-2],"split_indices":[50,0,0,0,1,0,0],"split_type":[0,0,0,0,0,0,0],"sum_hessian":[1.6986656E4,1.3657462E4,3.3291938E3,8.31966E3,5.3378022E3,2.8149238E3,2.5228784E3],"tree_param":{"num_deleted":"0","num_feature":"51","num_nodes":"7","size_leaf_vector":"1"}},{"base_weights":[-1.005121E-1,-4.3304303E-1,2.1338844E-1,6.119808E-2,-5.401712E-1,5.556329E-1,-5.4172356E-2,-5.409755E-2,5.0192334E-2,6.1297823E-2,-5.3783007E-2],"categories":[],"categories_nodes":[],"categories_segments":[],"categories_sizes":[],"default_left":[0,0,0,0,0,0,0,0,0,0,0],"id":45,"left_children":[1,3,5,-1,7,9,-1,-1,-1,-1,-1],"loss_changes":[1.2893535E3,6.7182166E2,1.6424778E3,0E0,4.831543E0,2.7454187E2,0E0,0E0,0E0,0E0,0E0],"parents":[2147483647,0,0,1,1,2,2,4,4,5,5],"right_children":[2,4,6,-1,8,10,-1,-1,-1,-1,-1],"split_conditions":[1.0476162E0,-8.801815E-1,-2.6869372E-1,6.119808E-2,1.0335872E0,1.3452916E0,-5.4172356E-2,-5.409755E-2,5.0192334E-2,6.1297823E-2,-5.3783007E-2],"split_indices":[38,38,50,0,48,0,0,0,0,0,0],"split_type":[0,0,0,0,0,0,0,0,0,0,0],"sum_hessian":[1.2350416E4,5.997052E3,6.3533643E3,5.571734E2,5.4398784E3,4.372053E3,1.981311E3,5.436164E3,3.7146204E0,4.1546094E3,2.1744388E2],"tree_param":{"num_deleted":"0","num_feature":"51","num_nodes":"11","size_leaf_vector":"1"}},{"base_weights":[-1.22630544E-1,-5.4049786E-2,5.4900676E-1,-5.4127194E-2,6.1430484E-2],"categories":[],"categories_nodes":[],"categories_segments":[],"categories_sizes":[],"default_left":[0,0,0,0,0],"id":46,"left_children":[1,-1,3,-1,-1],"loss_changes":[3.3914607E3,0E0,3.3029883E2,0E0,0E0],"parents":[2147483647,0,0,2,2],"right_children":[2,-1,4,-1,-1],"split_conditions":[1.6215347E0,-5.4049786E-2,-8.768976E-1,-5.4127194E-2,6.1430484E-2],"split_indices":[50,0,0,0,0],"split_type":[0,0,0,0,0],"sum_hessian":[1.2082022E4,7.4482183E3,4.633804E3,2.6143018E2,4.372374E3],"tree_param":{"num_deleted":"0","num_feature":"51","num_nodes":"5","size_leaf_vector":"1"}},{"base_weights":[1.7379875E-1,3.5155594E-1,-5.5845182E-2,5.8645453E-2,-1.5686074E-2,-5.5822123E-2,5.862641E-2],"categories":[],"categories_nodes":[],"categories_segments":[],"categories_sizes":[],"default_left":[0,0,0,0,0,0,0],"id":47,"left_children":[1,3,-1,-1,5,-1,-1],"loss_changes":[2.0396873E3,1.0876947E3,0E0,0E0,1.6070005E3,0E0,0E0],"parents":[2147483647,0,0,1,1,4,4],"right_children":[2,4,-1,-1,6,-1,-1],"split_conditions":[1.4115094E0,1.0467054E0,-5.5845182E-2,5.8645453E-2,1.0688119E0,-5.5822123E-2,5.862641E-2],"split_indices":[50,0,0,0,1,0,0],"split_type":[0,0,0,0,0,0,0],"sum_hessian":[1.566777E4,1.260771E4,3.0600593E3,7.689005E3,4.9187056E3,2.5870662E3,2.3316392E3],"tree_param":{"num_deleted":"0","num_feature":"51","num_nodes":"7","size_leaf_vector":"1"}},{"base_weights":[-9.9141255E-2,-4.2920524E-1,2.1003297E-1,5.995039E-2,-5.361008E-1,5.447505E-1,-5.3756922E-2,-5.3691465E-2,4.845768E-2,6.0054433E-2,-5.3364147E-2],"categories":[],"categories_nodes":[],"categories_segments":[],"categories_sizes":[],"default_left":[0,0,0,0,0,0,0,0,0,0,0],"id":48,"left_children":[1,3,5,-1,7,9,-1,-1,-1,-1,-1],"loss_changes":[1.1593956E3,6.045697E2,1.4683083E3,0E0,4.39563E0,2.4416467E2,0E0,0E0,0E0,0E0,0E0],"parents":[2147483647,0,0,1,1,2,2,4,4,5,5],"right_children":[2,4,6,-1,8,10,-1,-1,-1,-1,-1],"split_conditions":[1.0476162E0,-8.801815E-1,-2.6869372E-1,5.995039E-2,1.0335872E0,1.3452916E0,-5.3756922E-2,-5.3691465E-2,4.845768E-2,6.0054433E-2,-5.3364147E-2],"split_indices":[38,38,50,0,48,0,0,0,0,0,0],"split_type":[0,0,0,0,0,0,0,0,0,0,0],"sum_hessian":[1.1359475E4,5.493941E3,5.865534E3,5.1671625E2,4.9772246E3,4.05175E3,1.813784E3,4.9737324E3,3.4919136E0,3.8528542E3,1.9889566E2],"tree_param":{"num_deleted":"0","num_feature":"51","num_nodes":"11","size_leaf_vector":"1"}},{"base_weights":[-1.2102555E-1,-5.3649735E-2,5.380761E-1,-5.368776E-2,6.0170878E-2],"categories":[],"categories_nodes":[],"categories_segments":[],"categories_sizes":[],"default_left":[0,0,0,0,0],"id":49,"left_children":[1,-1,3,-1,-1],"loss_changes":[3.0430024E3,0E0,2.9421863E2,0E0,0E0],"parents":[2147483647,0,0,2,2],"right_children":[2,-1,4,-1,-1],"split_conditions":[1.6215347E0,-5.3649735E-2,-8.768976E-1,-5.368776E-2,6.0170878E-2],"split_indices":[50,0,0,0,0],"split_type":[0,0,0,0,0],"sum_hessian":[1.1110358E4,6.8147764E3,4.295582E3,2.396534E2,4.0559285E3],"tree_param":{"num_deleted":"0","num_feature":"51","num_nodes":"5","size_leaf_vector":"1"}},{"base_weights":[1.713124E-1,3.4634936E-1,-5.5247195E-2,5.7722528E-2,-1.5540475E-2,-5.5225592E-2,5.7702597E-2],"categories":[],"categories_nodes":[],"categories_segments":[],"categories_sizes":[],"default_left":[0,0,0,0,0,0,0],"id":50,"left_children":[1,3,-1,-1,5,-1,-1],"loss_changes":[1.8275828E3,9.7053345E2,0E0,0E0,1.4395203E3,0E0,0E0],"parents":[2147483647,0,0,1,1,4,4],"right_children":[2,4,-1,-1,6,-1,-1],"split_conditions":[1.4115094E0,1.0467054E0,-5.5247195E-2,5.7722528E-2,1.0688119E0,-5.5225592E-2,5.7702597E-2],"split_indices":[50,0,0,0,1,0,0],"split_type":[0,0,0,0,0,0,0],"sum_hessian":[1.4423232E4,1.1614864E4,2.8083682E3,7.0906353E3,4.5242285E3,2.3740273E3,2.150201E3],"tree_param":{"num_deleted":"0","num_feature":"51","num_nodes":"7","size_leaf_vector":"1"}},{"base_weights":[-9.791905E-2,-4.2575943E-1,2.0706303E-1,5.885401E-2,-5.3244066E-1,5.351852E-1,-5.3382974E-2,-5.3326465E-2,4.6830937E-2,5.8963157E-2,-5.2983683E-2],"categories":[],"categories_nodes":[],"categories_segments":[],"categories_sizes":[],"default_left":[0,0,0,0,0,0,0,0,0,0,0],"id":51,"left_children":[1,3,5,-1,7,9,-1,-1,-1,-1,-1],"loss_changes":[1.0431609E3,5.443808E2,1.3143098E3,0E0,4.001709E0,2.1756702E2,0E0,0E0,0E0,0E0,0E0],"parents":[2147483647,0,0,1,1,2,2,4,4,5,5],"right_children":[2,4,6,-1,8,10,-1,-1,-1,-1,-1],"split_conditions":[1.0476162E0,-8.801815E-1,-2.6869372E-1,5.885401E-2,1.0335872E0,1.3452916E0,-5.3382974E-2,-5.3326465E-2,4.6830937E-2,5.8963157E-2,-5.2983683E-2],"split_indices":[38,38,50,0,48,0,0,0,0,0,0],"split_type":[0,0,0,0,0,0,0,0,0,0,0],"sum_hessian":[1.0431245E4,5.027037E3,5.404208E3,4.7798196E2,4.5490547E3,3.7456394E3,1.6585687E3,4.5457793E3,3.2757437E0,3.5638916E3,1.817478E2],"tree_param":{"num_deleted":"0","num_feature":"51","num_nodes":"11","size_leaf_vector":"1"}},{"base_weights":[-1.19594805E-1,-5.329004E-2,5.284711E-1,-5.3288575E-2,5.9065726E-2],"categories":[],"categories_nodes":[],"categories_segments":[],"categories_sizes":[],"default_left":[0,0,0,0,0],"id":52,"left_children":[1,-1,3,-1,-1],"loss_changes":[2.7327803E3,0E0,2.625453E2,0E0,0E0],"parents":[2147483647,0,0,2,2],"right_children":[2,-1,4,-1,-1],"split_conditions":[1.6215347E0,-5.329004E-2,-8.768976E-1,-5.3288575E-2,5.9065726E-2],"split_indices":[50,0,0,0,0],"split_type":[0,0,0,0,0],"sum_hessian":[1.0200628E4,6.2285396E3,3.9720884E3,2.1942908E2,3.7526592E3],"tree_param":{"num_deleted":"0","num_feature":"51","num_nodes":"5","size_leaf_vector":"1"}},{"base_weights":[1.6910489E-1,3.417379E-1,-5.4713216E-2,5.6907035E-2,-1.5412733E-2,-5.46929E-2,5.6886047E-2],"categories":[],"categories_nodes":[],"categories_segments":[],"categories_sizes":[],"default_left":[0,0,0,0,0,0,0],"id":53,"left_children":[1,3,-1,-1,5,-1,-1],"loss_changes":[1.6391837E3,8.672777E2,0E0,0E0,1.2908314E3,0E0,0E0],"parents":[2147483647,0,0,1,1,4,4],"right_children":[2,4,-1,-1,6,-1,-1],"split_conditions":[1.4115094E0,1.0467054E0,-5.4713216E-2,5.6907035E-2,1.0688119E0,-5.46929E-2,5.6886047E-2],"split_indices":[50,0,0,0,1,0,0],"split_type":[0,0,0,0,0,0,0],"sum_hessian":[1.3254544E4,1.0680717E4,2.5738264E3,6.5261304E3,4.1545864E3,2.1755457E3,1.9790409E3],"tree_param":{"num_deleted":"0","num_feature":"51","num_nodes":"7","size_leaf_vector":"1"}},{"base_weights":[-9.6827574E-2,-4.2266187E-1,2.0442756E-1,5.788712E-2,-5.291467E-1,5.2675056E-1,-5.3046096E-2,-5.2998137E-2,4.5293573E-2,5.800221E-2,-5.2637007E-2],"categories":[],"categories_nodes":[],"categories_segments":[],"categories_sizes":[],"default_left":[0,0,0,0,0,0,0,0,0,0,0],"id":54,"left_children":[1,3,5,-1,7,9,-1,-1,-1,-1,-1],"loss_changes":[9.390812E2,4.9044678E2,1.1778066E3,0E0,3.6461182E0,1.9419464E2,0E0,0E0,0E0,0E0,0E0],"parents":[2147483647,0,0,1,1,2,2,4,4,5,5],"right_children":[2,4,6,-1,8,10,-1,-1,-1,-1,-1],"split_conditions":[1.0476162E0,-8.801815E-1,-2.6869372E-1,5.788712E-2,1.0335872E0,1.3452916E0,-5.3046096E-2,-5.2998137E-2,4.5293573E-2,5.800221E-2,-5.2637007E-2],"split_indices":[38,38,50,0,48,0,0,0,0,0,0],"split_type":[0,0,0,0,0,0,0,0,0,0,0],"sum_hessian":[9.565035E3,4.59487E3,4.9701646E3,4.4115845E2,4.153712E3,3.4550562E3,1.5151086E3,4.150644E3,3.0675447E0,3.2891267E3,1.6592938E2],"tree_param":{"num_deleted":"0","num_feature":"51","num_nodes":"11","size_leaf_vector":"1"}},{"base_weights":[-1.1831752E-1,-5.2966412E-2,5.200037E-1,-5.2925166E-2,5.8092862E-2],"categories":[],"categories_nodes":[],"categories_segments":[],"categories_sizes":[],"default_left":[0,0,0,0,0],"id":55,"left_children":[1,-1,3,-1,-1],"loss_changes":[2.4561145E3,0E0,2.3464679E2,0E0,0E0],"parents":[2147483647,0,0,2,2],"right_children":[2,-1,4,-1,-1],"split_conditions":[1.6215347E0,-5.2966412E-2,-8.768976E-1,-5.2925166E-2,5.8092862E-2],"split_indices":[50,0,0,0,0],"split_type":[0,0,0,0,0],"sum_hessian":[9.352039E3,5.6872407E3,3.664798E3,2.006966E2,3.4641016E3],"tree_param":{"num_deleted":"0","num_feature":"51","num_nodes":"5","size_leaf_vector":"1"}},{"base_weights":[1.6714105E-1,3.3764446E-1,-5.4235674E-2,5.618466E-2,-1.5299992E-2,-5.4216485E-2,5.6162447E-2],"categories":[],"categories_nodes":[],"categories_segments":[],"categories_sizes":[],"default_left":[0,0,0,0,0,0,0],"id":56,"left_children":[1,3,-1,-1,5,-1,-1],"loss_changes":[1.4715259E3,7.7602515E2,0E0,0E0,1.1585688E3,0E0,0E0],"parents":[2147483647,0,0,1,1,4,4],"right_children":[2,4,-1,-1,6,-1,-1],"split_conditions":[1.4115094E0,1.0467054E0,-5.4235674E-2,5.618466E-2,1.0688119E0,-5.4216485E-2,5.6162447E-2],"split_indices":[50,0,0,0,1,0,0],"split_type":[0,0,0,0,0,0,0],"sum_hessian":[1.2161692E4,9.805743E3,2.3559492E3,5.9961777E3,3.8095657E3,1.991201E3,1.8183647E3],"tree_param":{"num_deleted":"0","num_feature":"51","num_nodes":"7","size_leaf_vector":"1"}},{"base_weights":[-9.585144E-2,-4.1987416E-1,2.0208354E-1,5.703159E-2,-5.261799E-1,5.1929164E-1,-5.274234E-2,-5.2702602E-2,4.3830395E-2,5.715355E-2,-5.2319992E-2],"categories":[],"categories_nodes":[],"categories_segments":[],"categories_sizes":[],"default_left":[0,0,0,0,0,0,0,0,0,0,0],"id":57,"left_children":[1,3,5,-1,7,9,-1,-1,-1,-1,-1],"loss_changes":[8.457919E2,4.4206628E2,1.0565452E3,0E0,3.3243408E0,1.7359113E2,0E0,0E0,0E0,0E0,0E0],"parents":[2147483647,0,0,1,1,2,2,4,4,5,5],"right_children":[2,4,6,-1,8,10,-1,-1,-1,-1,-1],"split_conditions":[1.0476162E0,-8.801815E-1,-2.6869372E-1,5.703159E-2,1.0335872E0,1.3452916E0,-5.274234E-2,-5.2702602E-2,4.3830395E-2,5.715355E-2,-5.2319992E-2],"split_indices":[38,38,50,0,48,0,0,0,0,0,0],"split_type":[0,0,0,0,0,0,0,0,0,0,0],"sum_hessian":[8.759381E3,4.19579E3,4.5635903E3,4.063604E2,3.7894297E3,3.1807903E3,1.3828002E3,3.7865613E3,2.868329E0,3.0294246E3,1.5136589E2],"tree_param":{"num_deleted":"0","num_feature":"51","num_nodes":"11","size_leaf_vector":"1"}},{"base_weights":[-1.1717571E-1,-5.2675046E-2,5.125171E-1,-5.259347E-2,5.723392E-2],"categories":[],"categories_nodes":[],"categories_segments":[],"categories_sizes":[],"default_left":[0,0,0,0,0],"id":58,"left_children":[1,-1,3,-1,-1],"loss_changes":[2.2089949E3,0E0,2.1000098E2,0E0,0E0],"parents":[2147483647,0,0,2,2],"right_children":[2,-1,4,-1,-1],"split_conditions":[1.6215347E0,-5.2675046E-2,-8.768976E-1,-5.259347E-2,5.723392E-2],"split_indices":[50,0,0,0,0],"split_type":[0,0,0,0,0],"sum_hessian":[8.563061E3,5.188462E3,3.3745981E3,1.8338725E2,3.191211E3],"tree_param":{"num_deleted":"0","num_feature":"51","num_nodes":"5","size_leaf_vector":"1"}},{"base_weights":[1.6539074E-1,3.3400357E-1,-5.380803E-2,5.554336E-2,-1.5199697E-2,-5.3789802E-2,5.551973E-2],"categories":[],"categories_nodes":[],"categories_segments":[],"categories_sizes":[],"default_left":[0,0,0,0,0,0,0],"id":59,"left_children":[1,3,-1,-1,5,-1,-1],"loss_changes":[1.3220745E3,6.951807E2,0E0,0E0,1.0407139E3,0E0,0E0],"parents":[2147483647,0,0,1,1,4,4],"right_children":[2,4,-1,-1,6,-1,-1],"split_conditions":[1.4115094E0,1.0467054E0,-5.380803E-2,5.554336E-2,1.0688119E0,-5.3789802E-2,5.551973E-2],"split_indices":[50,0,0,0,1,0,0],"split_type":[0,0,0,0,0,0,0],"sum_hessian":[1.1143485E4,8.989375E3,2.1541106E3,5.5007534E3,3.4886213E3,1.8204557E3,1.6681655E3],"tree_param":{"num_deleted":"0","num_feature":"51","num_nodes":"7","size_leaf_vector":"1"}},{"base_weights":[-9.4976895E-2,-4.1736233E-1,1.9999456E-1,5.6272246E-2,-5.235056E-1,5.1267874E-1,-5.246821E-2,-5.243639E-2,4.2428967E-2,5.6402095E-2,-5.202896E-2],"categories":[],"categories_nodes":[],"categories_segments":[],"categories_sizes":[],"default_left":[0,0,0,0,0,0,0,0,0,0,0],"id":60,"left_children":[1,3,5,-1,7,9,-1,-1,-1,-1,-1],"loss_changes":[7.620982E2,3.9862628E2,9.4861633E2,0E0,3.033081E0,1.5537787E2,0E0,0E0,0E0,0E0,0E0],"parents":[2147483647,0,0,1,1,2,2,4,4,5,5],"right_children":[2,4,6,-1,8,10,-1,-1,-1,-1,-1],"split_conditions":[1.0476162E0,-8.801815E-1,-2.6869372E-1,5.6272246E-2,1.0335872E0,1.3452916E0,-5.246821E-2,-5.243639E-2,4.2428967E-2,5.6402095E-2,-5.202896E-2],"split_indices":[38,38,50,0,48,0,0,0,0,0,0],"split_type":[0,0,0,0,0,0,0,0,0,0,0],"sum_hessian":[8.012237E3,3.828027E3,4.18421E3,3.7364435E2,3.4543826E3,2.9231982E3,1.2610118E3,3.4517039E3,2.6787574E0,2.785217E3,1.3798116E2],"tree_param":{"num_deleted":"0","num_feature":"51","num_nodes":"11","size_leaf_vector":"1"}},{"base_weights":[-1.16153784E-1,-5.2412577E-2,5.058803E-1,-5.228982E-2,5.6473542E-2],"categories":[],"categories_nodes":[],"categories_segments":[],"categories_sizes":[],"default_left":[0,0,0,0,0],"id":61,"left_children":[1,-1,3,-1,-1],"loss_changes":[1.9879661E3,0E0,1.8817279E2,0E0,0E0],"parents":[2147483647,0,0,2,2],"right_children":[2,-1,4,-1,-1],"split_conditions":[1.6215347E0,-5.2412577E-2,-8.768976E-1,-5.228982E-2,5.6473542E-2],"split_indices":[50,0,0,0,0],"split_type":[0,0,0,0,0],"sum_hessian":[7.8316113E3,4.7297075E3,3.1019043E3,1.6742677E2,2.9344775E3],"tree_param":{"num_deleted":"0","num_feature":"51","num_nodes":"5","size_leaf_vector":"1"}},{"base_weights":[1.6382821E-1,3.307594E-1,-5.3424556E-2,5.497287E-2,-1.5109962E-2,-5.340714E-2,5.4947622E-2],"categories":[],"categories_nodes":[],"categories_segments":[],"categories_sizes":[],"default_left":[0,0,0,0,0,0,0],"id":62,"left_children":[1,3,-1,-1,5,-1,-1],"loss_changes":[1.1886523E3,6.234014E2,0E0,0E0,9.355338E2,0E0,0E0],"parents":[2147483647,0,0,1,1,4,4],"right_children":[2,4,-1,-1,6,-1,-1],"split_conditions":[1.4115094E0,1.0467054E0,-5.3424556E-2,5.497287E-2,1.0688119E0,-5.340714E-2,5.4947622E-2],"split_indices":[50,0,0,0,1,0,0],"split_type":[0,0,0,0,0,0,0],"sum_hessian":[1.0197856E4,8.230269E3,1.9675878E3,5.0393047E3,3.1909639E3,1.6626907E3,1.5282731E3],"tree_param":{"num_deleted":"0","num_feature":"51","num_nodes":"7","size_leaf_vector":"1"}},{"base_weights":[-9.419233E-2,-4.1509643E-1,1.9812918E-1,5.559629E-2,-5.210932E-1,5.06802E-1,-5.2220583E-2,-5.2196432E-2,4.1079115E-2,5.573514E-2,-5.1760584E-2],"categories":[],"categories_nodes":[],"categories_segments":[],"categories_sizes":[],"default_left":[0,0,0,0,0,0,0,0,0,0,0],"id":63,"left_children":[1,3,5,-1,7,9,-1,-1,-1,-1,-1],"loss_changes":[6.869519E2,3.5958984E2,8.52389E2,0E0,2.7696533E0,1.3923785E2,0E0,0E0,0E0,0E0,0E0],"parents":[2147483647,0,0,1,1,2,2,4,4,5,5],"right_children":[2,4,6,-1,8,10,-1,-1,-1,-1,-1],"split_conditions":[1.0476162E0,-8.801815E-1,-2.6869372E-1,5.559629E-2,1.0335872E0,1.3452916E0,-5.2220583E-2,-5.2196432E-2,4.1079115E-2,5.573514E-2,-5.1760584E-2],"split_indices":[38,38,50,0,48,0,0,0,0,0,0],"split_type":[0,0,0,0,0,0,0,0,0,0,0],"sum_hessian":[7.3211445E3,3.489752E3,3.8313926E3,3.4302063E2,3.1467314E3,2.6822922E3,1.1491005E3,3.1442322E3,2.4992044E0,2.556593E3,1.25699005E2],"tree_param":{"num_deleted":"0","num_feature":"51","num_nodes":"11","size_leaf_vector":"1"}},{"base_weights":[-1.1523836E-1,-5.2175988E-2,4.999825E-1,-5.2010875E-2,5.5798825E-2],"categories":[],"categories_nodes":[],"categories_segments":[],"categories_sizes":[],"default_left":[0,0,0,0,0],"id":64,"left_children":[1,-1,3,-1,-1],"loss_changes":[1.790035E3,0E0,1.6879541E2,0E0,0E0],"parents":[2147483647,0,0,2,2],"right_children":[2,-1,4,-1,-1],"split_conditions":[1.6215347E0,-5.2175988E-2,-8.768976E-1,-5.2010875E-2,5.5798825E-2],"split_indices":[50,0,0,0,0],"split_type":[0,0,0,0,0],"sum_hessian":[7.155219E3,4.3084575E3,2.8467615E3,1.5273792E2,2.6940237E3],"tree_param":{"num_deleted":"0","num_feature":"51","num_nodes":"5","size_leaf_vector":"1"}},{"base_weights":[1.6243096E-1,3.2786393E-1,-5.3080272E-2,5.4464456E-2,-1.50286695E-2,-5.3063508E-2,5.443738E-2],"categories":[],"categories_nodes":[],"categories_segments":[],"categories_sizes":[],"default_left":[0,0,0,0,0,0,0],"id":65,"left_children":[1,3,-1,-1,5,-1,-1],"loss_changes":[1.0693805E3,5.595456E2,0E0,0E0,8.415369E2,0E0,0E0],"parents":[2147483647,0,0,1,1,4,4],"right_children":[2,4,-1,-1,6,-1,-1],"split_conditions":[1.4115094E0,1.0467054E0,-5.3080272E-2,5.4464456E-2,1.0688119E0,-5.3063508E-2,5.443738E-2],"split_indices":[50,0,0,0,1,0,0],"split_type":[0,0,0,0,0,0,0],"sum_hessian":[9.32209E3,7.5264966E3,1.7955928E3,4.610866E3,2.9156304E3,1.5172336E3,1.3983967E3],"tree_param":{"num_deleted":"0","num_feature":"51","num_nodes":"7","size_leaf_vector":"1"}},{"base_weights":[-9.348728E-2,-4.1304964E-1,1.9646055E-1,5.499288E-2,-5.1891506E-1,5.0156844E-1,-5.1996656E-2,-5.1979978E-2,3.9772626E-2,5.5141926E-2,-5.151183E-2],"categories":[],"categories_nodes":[],"categories_segments":[],"categories_sizes":[],"default_left":[0,0,0,0,0,0,0,0,0,0,0],"id":66,"left_children":[1,3,5,-1,7,9,-1,-1,-1,-1,-1],"loss_changes":[6.1942993E2,3.2448553E2,7.664638E2,0E0,2.5307617E0,1.2490375E2,0E0,0E0,0E0,0E0,0E0],"parents":[2147483647,0,0,1,1,2,2,4,4,5,5],"right_children":[2,4,6,-1,8,10,-1,-1,-1,-1,-1],"split_conditions":[1.0476162E0,-8.801815E-1,-2.6869372E-1,5.499288E-2,1.0335872E0,1.3452916E0,-5.1996656E-2,-5.1979978E-2,3.9772626E-2,5.5141926E-2,-5.151183E-2],"split_indices":[38,38,50,0,48,0,0,0,0,0,0],"split_type":[0,0,0,0,0,0,0,0,0,0,0],"sum_hessian":[6.6833594E3,3.179114E3,3.5042454E3,3.144651E2,2.864649E3,2.457822E3,1.0464233E3,2.862319E3,2.329817E0,2.3433777E3,1.1444431E2],"tree_param":{"num_deleted":"0","num_feature":"51","num_nodes":"11","size_leaf_vector":"1"}},{"base_weights":[-1.1441703E-1,-5.1962603E-2,4.947301E-1,-5.175362E-2,5.5198837E-2],"categories":[],"categories_nodes":[],"categories_segments":[],"categories_sizes":[],"default_left":[0,0,0,0,0],"id":67,"left_children":[1,-1,3,-1,-1],"loss_changes":[1.6126006E3,0E0,1.5155927E2,0E0,0E0],"parents":[2147483647,0,0,2,2],"right_children":[2,-1,4,-1,-1],"split_conditions":[1.6215347E0,-5.1962603E-2,-8.768976E-1,-5.175362E-2,5.5198837E-2],"split_indices":[50,0,0,0,0],"split_type":[0,0,0,0,0],"sum_hessian":[6.531153E3,3.9222148E3,2.6089382E3,1.392423E2,2.469696E3],"tree_param":{"num_deleted":"0","num_feature":"51","num_nodes":"5","size_leaf_vector":"1"}},{"base_weights":[1.6118017E-1,3.2527617E-1,-5.2770805E-2,5.4010637E-2,-1.4955335E-2,-5.2754547E-2,5.3981464E-2],"categories":[],"categories_nodes":[],"categories_segments":[],"categories_sizes":[],"default_left":[0,0,0,0,0,0,0],"id":68,"left_children":[1,3,-1,-1,5,-1,-1],"loss_changes":[9.626305E2,5.026424E2,0E0,0E0,7.574283E2,0E0,0E0],"parents":[2147483647,0,0,1,1,4,4],"right_children":[2,4,-1,-1,6,-1,-1],"split_conditions":[1.4115094E0,1.0467054E0,-5.2770805E-2,5.4010637E-2,1.0688119E0,-5.2754547E-2,5.3981464E-2],"split_indices":[50,0,0,0,1,0,0],"split_type":[0,0,0,0,0,0,0],"sum_hessian":[8.513035E3,6.8757344E3,1.6373003E3,4.214201E3,2.661533E3,1.3833811E3,1.2781519E3],"tree_param":{"num_deleted":"0","num_feature":"51","num_nodes":"7","size_leaf_vector":"1"}},{"base_weights":[-9.285297E-2,-4.1119838E-1,1.9496512E-1,5.445273E-2,-5.169467E-1,4.9689826E-1,-5.1793933E-2,-5.17846E-2,3.850294E-2,5.461328E-2,-5.127996E-2],"categories":[],"categories_nodes":[],"categories_segments":[],"categories_sizes":[],"default_left":[0,0,0,0,0,0,0,0,0,0,0],"id":69,"left_children":[1,3,5,-1,7,9,-1,-1,-1,-1,-1],"loss_changes":[5.5871783E2,2.9289676E2,6.8963385E2,0E0,2.314209E0,1.12148865E2,0E0,0E0,0E0,0E0,0E0],"parents":[2147483647,0,0,1,1,2,2,4,4,5,5],"right_children":[2,4,6,-1,8,10,-1,-1,-1,-1,-1],"split_conditions":[1.0476162E0,-8.801815E-1,-2.6869372E-1,5.445273E-2,1.0335872E0,1.3452916E0,-5.1793933E-2,-5.17846E-2,3.850294E-2,5.461328E-2,-5.127996E-2],"split_indices":[38,38,50,0,48,0,0,0,0,0,0],"split_type":[0,0,0,0,0,0,0,0,0,0,0],"sum_hessian":[6.0959634E3,2.894277E3,3.201686E3,2.8792624E2,2.6063508E3,2.2493376E3,9.523486E2,2.6041804E3,2.1705668E0,2.1451936E3,1.0414404E2],"tree_param":{"num_deleted":"0","num_feature":"51","num_nodes":"11","size_leaf_vector":"1"}},{"base_weights":[-1.1367993E-1,-5.177003E-2,4.900425E-1,-5.151528E-2,5.466426E-2],"categories":[],"categories_nodes":[],"categories_segments":[],"categories_sizes":[],"default_left":[0,0,0,0,0],"id":70,"left_children":[1,-1,3,-1,-1],"loss_changes":[1.4533871E3,0E0,1.3620038E2,0E0,0E0],"parents":[2147483647,0,0,2,2],"right_children":[2,-1,4,-1,-1],"split_conditions":[1.6215347E0,-5.177003E-2,-8.768976E-1,-5.151528E-2,5.466426E-2],"split_indices":[50,0,0,0,0],"split_type":[0,0,0,0,0],"sum_hessian":[5.956511E3,3.568535E3,2.3879763E3,1.2686162E2,2.2611147E3],"tree_param":{"num_deleted":"0","num_feature":"51","num_nodes":"5","size_leaf_vector":"1"}},{"base_weights":[1.6005853E-1,3.229599E-1,-5.249231E-2,5.3604927E-2,-1.488782E-2,-5.2476414E-2,5.3573407E-2],"categories":[],"categories_nodes":[],"categories_segments":[],"categories_sizes":[],"default_left":[0,0,0,0,0,0,0],"id":71,"left_children":[1,3,-1,-1,5,-1,-1],"loss_changes":[8.669834E2,4.5185425E2,0E0,0E0,6.820859E2,0E0,0E0],"parents":[2147483647,0,0,1,1,4,4],"right_children":[2,4,-1,-1,6,-1,-1],"split_conditions":[1.4115094E0,1.0467054E0,-5.249231E-2,5.3604927E-2,1.0688119E0,-5.2476414E-2,5.3573407E-2],"split_indices":[50,0,0,0,1,0,0],"split_type":[0,0,0,0,0,0,0],"sum_hessian":[7.7672314E3,6.275362E3,1.4918694E3,3.8478418E3,2.4275203E3,1.2604185E3,1.1671017E3],"tree_param":{"num_deleted":"0","num_feature":"51","num_nodes":"7","size_leaf_vector":"1"}},{"base_weights":[-9.228169E-2,-4.0952146E-1,1.9362234E-1,5.3967863E-2,-5.151664E-1,4.92723E-1,-5.1610183E-2,-5.1608115E-2,3.7264854E-2,5.414133E-2,-5.1062435E-2],"categories":[],"categories_nodes":[],"categories_segments":[],"categories_sizes":[],"default_left":[0,0,0,0,0,0,0,0,0,0,0],"id":72,"left_children":[1,3,5,-1,7,9,-1,-1,-1,-1,-1],"loss_changes":[5.0409558E2,2.644553E2,6.208535E2,0E0,2.117981E0,1.0077969E2,0E0,0E0,0E0,0E0,0E0],"parents":[2147483647,0,0,1,1,2,2,4,4,5,5],"right_children":[2,4,6,-1,8,10,-1,-1,-1,-1,-1],"split_conditions":[1.0476162E0,-8.801815E-1,-2.6869372E-1,5.3967863E-2,1.0335872E0,1.3452916E0,-5.1610183E-2,-5.1608115E-2,3.7264854E-2,5.414133E-2,-5.1062435E-2],"split_indices":[38,38,50,0,48,0,0,0,0,0,0],"split_type":[0,0,0,0,0,0,0,0,0,0,0],"sum_hessian":[5.555952E3,2.633444E3,2.922508E3,2.633335E2,2.3701106E3,2.0562456E3,8.6626245E2,2.3680894E3,2.0212781E0,1.9615177E3,9.472787E1],"tree_param":{"num_deleted":"0","num_feature":"51","num_nodes":"11","size_leaf_vector":"1"}},{"base_weights":[-1.1301774E-1,-5.1596135E-2,4.8585096E-1,-5.1293325E-2,5.4187115E-2],"categories":[],"categories_nodes":[],"categories_segments":[],"categories_sizes":[],"default_left":[0,0,0,0,0],"id":73,"left_children":[1,-1,3,-1,-1],"loss_changes":[1.3104027E3,0E0,1.2249237E2,0E0,0E0],"parents":[2147483647,0,0,2,2],"right_children":[2,-1,4,-1,-1],"split_conditions":[1.6215347E0,-5.1596135E-2,-8.768976E-1,-5.1293325E-2,5.4187115E-2],"split_indices":[50,0,0,0,0],"split_type":[0,0,0,0,0],"sum_hessian":[5.428324E3,3.2450552E3,2.183269E3,1.1551927E2,2.0677498E3],"tree_param":{"num_deleted":"0","num_feature":"51","num_nodes":"5","size_leaf_vector":"1"}},{"base_weights":[1.5905178E-1,3.2088438E-1,-5.2241392E-2,5.324173E-2,-1.4825559E-2,-5.222572E-2,5.3207565E-2],"categories":[],"categories_nodes":[],"categories_segments":[],"categories_sizes":[],"default_left":[0,0,0,0,0,0,0],"id":74,"left_children":[1,3,-1,-1,5,-1,-1],"loss_changes":[7.812021E2,4.064626E2,0E0,0E0,6.1452795E2,0E0,0E0],"parents":[2147483647,0,0,1,1,4,4],"right_children":[2,4,-1,-1,6,-1,-1],"split_conditions":[1.4115094E0,1.0467054E0,-5.2241392E-2,5.324173E-2,1.0688119E0,-5.222572E-2,5.3207565E-2],"split_indices":[50,0,0,0,1,0,0],"split_type":[0,0,0,0,0,0,0],"sum_hessian":[7.0810693E3,5.722609E3,1.3584602E3,3.5102146E3,2.2123943E3,1.1476317E3,1.0647626E3],"tree_param":{"num_deleted":"0","num_feature":"51","num_nodes":"7","size_leaf_vector":"1"}},{"base_weights":[-9.176622E-2,-4.079999E-1,1.9241475E-1,5.353138E-2,-5.1355445E-1,4.8898366E-1,-5.1443376E-2,-5.1448572E-2,3.605437E-2,5.3719312E-2,-5.0856944E-2],"categories":[],"categories_nodes":[],"categories_segments":[],"categories_sizes":[],"default_left":[0,0,0,0,0,0,0,0,0,0,0],"id":75,"left_children":[1,3,5,-1,7,9,-1,-1,-1,-1,-1],"loss_changes":[4.5492572E2,2.3883478E2,5.592132E2,0E0,1.9398804E0,9.0630066E1,0E0,0E0,0E0,0E0,0E0],"parents":[2147483647,0,0,1,1,2,2,4,4,5,5],"right_children":[2,4,6,-1,8,10,-1,-1,-1,-1,-1],"split_conditions":[1.0476162E0,-8.801815E-1,-2.6869372E-1,5.353138E-2,1.0335872E0,1.3452916E0,-5.1443376E-2,-5.1448572E-2,3.605437E-2,5.3719312E-2,-5.0856944E-2],"split_indices":[38,38,50,0,48,0,0,0,0,0,0],"split_type":[0,0,0,0,0,0,0,0,0,0,0],"sum_hessian":[5.0603047E3,2.3948757E3,2.665429E3,2.4060246E2,2.1542732E3,1.8778549E3,7.8757404E2,2.1523916E3,1.8816731E0,1.7917263E3,8.612851E1],"tree_param":{"num_deleted":"0","num_feature":"51","num_nodes":"11","size_leaf_vector":"1"}},{"base_weights":[-1.1242235E-1,-5.1439006E-2,4.8209593E-1,-5.10854E-2,5.376053E-2],"categories":[],"categories_nodes":[],"categories_segments":[],"categories_sizes":[],"default_left":[0,0,0,0,0],"id":76,"left_children":[1,-1,3,-1,-1],"loss_changes":[1.1818965E3,0E0,1.1024054E2,0E0,0E0],"parents":[2147483647,0,0,2,2],"right_children":[2,-1,4,-1,-1],"split_conditions":[1.6215347E0,-5.1439006E-2,-8.768976E-1,-5.10854E-2,5.376053E-2],"split_indices":[50,0,0,0,0],"split_type":[0,0,0,0,0],"sum_hessian":[4.9436094E3,2.9495107E3,1.9940984E3,1.0514075E2,1.8889576E3],"tree_param":{"num_deleted":"0","num_feature":"51","num_nodes":"5","size_leaf_vector":"1"}},{"base_weights":[1.5814675E-1,3.1902218E-1,-5.2015055E-2,5.2916188E-2,-1.4767821E-2,-5.1999457E-2,5.2879054E-2],"categories":[],"categories_nodes":[],"categories_segments":[],"categories_sizes":[],"default_left":[0,0,0,0,0,0,0],"id":77,"left_children":[1,3,-1,-1,5,-1,-1],"loss_changes":[7.042015E2,3.65844E2,0E0,0E0,5.538962E2,0E0,0E0],"parents":[2147483647,0,0,1,1,4,4],"right_children":[2,4,-1,-1,6,-1,-1],"split_conditions":[1.4115094E0,1.0467054E0,-5.2015055E-2,5.2916188E-2,1.0688119E0,-5.1999457E-2,5.2879054E-2],"split_indices":[50,0,0,0,1,0,0],"split_type":[0,0,0,0,0,0,0],"sum_hessian":[6.4508594E3,5.214612E3,1.2362478E3,3.1996597E3,2.014952E3,1.0443203E3,9.706317E2],"tree_param":{"num_deleted":"0","num_feature":"51","num_nodes":"7","size_leaf_vector":"1"}},{"base_weights":[-9.13007E-2,-4.066169E-1,1.9132642E-1,5.313727E-2,-5.1209337E-1,4.8562884E-1,-5.1291704E-2,-5.1304217E-2,3.4868505E-2,5.3341355E-2,-5.0661296E-2],"categories":[],"categories_nodes":[],"categories_segments":[],"categories_sizes":[],"default_left":[0,0,0,0,0,0,0,0,0,0,0],"id":78,"left_children":[1,3,5,-1,7,9,-1,-1,-1,-1,-1],"loss_changes":[4.1064178E2,2.1574472E2,5.039181E2,0E0,1.7781372E0,8.1556915E1,0E0,0E0,0E0,0E0,0E0],"parents":[2147483647,0,0,1,1,2,2,4,4,5,5],"right_children":[2,4,6,-1,8,10,-1,-1,-1,-1,-1],"split_conditions":[1.0476162E0,-8.801815E-1,-2.6869372E-1,5.313727E-2,1.0335872E0,1.3452916E0,-5.1291704E-2,-5.1304217E-2,3.4868505E-2,5.3341355E-2,-5.0661296E-2],"split_indices":[38,38,50,0,48,0,0,0,0,0,0],"split_type":[0,0,0,0,0,0,0,0,0,0,0],"sum_hessian":[4.606027E3,2.1769023E3,2.4291245E3,2.1963928E2,1.957263E3,1.7134052E3,7.1571936E2,1.9555116E3,1.7513989E0,1.6351229E3,7.8282295E1],"tree_param":{"num_deleted":"0","num_feature":"51","num_nodes":"11","size_leaf_vector":"1"}},{"base_weights":[-1.11886166E-1,-5.129692E-2,4.7872597E-1,-5.088936E-2,5.337857E-2],"categories":[],"categories_nodes":[],"categories_segments":[],"categories_sizes":[],"default_left":[0,0,0,0,0],"id":79,"left_children":[1,-1,3,-1,-1],"loss_changes":[1.0663257E3,0E0,9.927649E1,0E0,0E0],"parents":[2147483647,0,0,2,2],"right_children":[2,-1,4,-1,-1],"split_conditions":[1.6215347E0,-5.129692E-2,-8.768976E-1,-5.088936E-2,5.337857E-2],"split_indices":[50,0,0,0,0],"split_type":[0,0,0,0,0],"sum_hessian":[4.499422E3,2.6797456E3,1.8196761E3,9.565454E1,1.7240216E3],"tree_param":{"num_deleted":"0","num_feature":"51","num_nodes":"5","size_leaf_vector":"1"}},{"base_weights":[1.5733272E-1,3.1734994E-1,-5.181063E-2,5.2624043E-2,-1.4713002E-2,-5.1794972E-2,5.2583594E-2],"categories":[],"categories_nodes":[],"categories_segments":[],"categories_sizes":[],"default_left":[0,0,0,0,0,0,0],"id":80,"left_children":[1,3,-1,-1,5,-1,-1],"loss_changes":[6.3502966E2,3.294557E2,0E0,0E0,4.9943744E2,0E0,0E0],"parents":[2147483647,0,0,1,1,4,4],"right_children":[2,4,-1,-1,6,-1,-1],"split_conditions":[1.4115094E0,1.0467054E0,-5.181063E-2,5.2624043E-2,1.0688119E0,-5.1794972E-2,5.2583594E-2],"split_indices":[50,0,0,0,1,0,0],"split_type":[0,0,0,0,0,0,0],"sum_hessian":[5.872929E3,4.7484995E3,1.1244297E3,2.914496E3,1.8340034E3,9.4980347E2,8.8419995E2],"tree_param":{"num_deleted":"0","num_feature":"51","num_nodes":"7","size_leaf_vector":"1"}},{"base_weights":[-9.087907E-2,-4.0535736E-1,1.9034451E-1,5.2780278E-2,-5.107674E-1,4.8261416E-1,-5.115354E-2,-5.1173486E-2,3.3705123E-2,5.300237E-2,-5.047349E-2],"categories":[],"categories_nodes":[],"categories_segments":[],"categories_sizes":[],"default_left":[0,0,0,0,0,0,0,0,0,0,0],"id":81,"left_children":[1,3,5,-1,7,9,-1,-1,-1,-1,-1],"loss_changes":[3.7074203E2,1.949267E2,4.54273E2,0E0,1.6312561E0,7.34361E1,0E0,0E0,0E0,0E0,0E0],"parents":[2147483647,0,0,1,1,2,2,4,4,5,5],"right_children":[2,4,6,-1,8,10,-1,-1,-1,-1,-1],"split_conditions":[1.0476162E0,-8.801815E-1,-2.6869372E-1,5.2780278E-2,1.0335872E0,1.3452916E0,-5.115354E-2,-5.1173486E-2,3.3705123E-2,5.300237E-2,-5.047349E-2],"split_indices":[38,38,50,0,48,0,0,0,0,0,0],"split_type":[0,0,0,0,0,0,0,0,0,0,0],"sum_hessian":[4.1902065E3,1.977937E3,2.2122695E3,2.0034476E2,1.7775923E3,1.5621058E3,6.5016376E2,1.7759623E3,1.6300452E0,1.4909768E3,7.112903E1],"tree_param":{"num_deleted":"0","num_feature":"51","num_nodes":"11","size_leaf_vector":"1"}},{"base_weights":[-1.11403674E-1,-5.116835E-2,4.7569594E-1,-5.070318E-2,5.303606E-2],"categories":[],"categories_nodes":[],"categories_segments":[],"categories_sizes":[],"default_left":[0,0,0,0,0],"id":82,"left_children":[1,-1,3,-1,-1],"loss_changes":[9.623234E2,0E0,8.945364E1,0E0,0E0],"parents":[2147483647,0,0,2,2],"right_children":[2,-1,4,-1,-1],"split_conditions":[1.6215347E0,-5.116835E-2,-8.768976E-1,-5.070318E-2,5.303606E-2],"split_indices":[50,0,0,0,0],"split_type":[0,0,0,0,0],"sum_hessian":[4.0928855E3,2.433722E3,1.6591636E3,8.699236E1,1.5721713E3],"tree_param":{"num_deleted":"0","num_feature":"51","num_nodes":"5","size_leaf_vector":"1"}},{"base_weights":[1.5659884E-1,3.1584617E-1,-5.1625747E-2,5.236156E-2,-1.4661269E-2,-5.1609892E-2,5.2317422E-2],"categories":[],"categories_nodes":[],"categories_segments":[],"categories_sizes":[],"default_left":[0,0,0,0,0,0,0],"id":83,"left_children":[1,3,-1,-1,5,-1,-1],"loss_changes":[5.7284546E2,2.9682507E2,0E0,0E0,4.5048706E2,0E0,0E0],"parents":[2147483647,0,0,1,1,4,4],"right_children":[2,4,-1,-1,6,-1,-1],"split_conditions":[1.4115094E0,1.0467054E0,-5.1625747E-2,5.236156E-2,1.0688119E0,-5.1609892E-2,5.2317422E-2],"split_indices":[50,0,0,0,1,0,0],"split_type":[0,0,0,0,0,0,0],"sum_hessian":[5.34365E3,4.321415E3,1.02223444E3,2.653034E3,1.6683813E3,8.6342694E2,8.0495435E2],"tree_param":{"num_deleted":"0","num_feature":"51","num_nodes":"7","size_leaf_vector":"1"}},{"base_weights":[-9.049678E-2,-4.0420735E-1,1.8945648E-1,5.24558E-2,-5.095624E-1,4.799004E-1,-5.1027395E-2,-5.1054962E-2,3.256282E-2,5.2697908E-2,-5.0291598E-2],"categories":[],"categories_nodes":[],"categories_segments":[],"categories_sizes":[],"default_left":[0,0,0,0,0,0,0,0,0,0,0],"id":84,"left_children":[1,3,5,-1,7,9,-1,-1,-1,-1,-1],"loss_changes":[3.3477707E2,1.7615076E2,4.096658E2,0E0,1.4977722E0,6.615973E1,0E0,0E0,0E0,0E0,0E0],"parents":[2147483647,0,0,1,1,2,2,4,4,5,5],"right_children":[2,4,6,-1,8,10,-1,-1,-1,-1,-1],"split_conditions":[1.0476162E0,-8.801815E-1,-2.6869372E-1,5.24558E-2,1.0335872E0,1.3452916E0,-5.1027395E-2,-5.1054962E-2,3.256282E-2,5.2697908E-2,-5.0291598E-2],"split_indices":[38,38,50,0,48,0,0,0,0,0,0],"split_type":[0,0,0,0,0,0,0,0,0,0,0],"sum_hessian":[3.8100237E3,1.7964784E3,2.0135452E3,1.8261789E2,1.6138606E3,1.423142E3,5.904032E2,1.6123434E3,1.5171684E0,1.3585297E3,6.46123E1],"tree_param":{"num_deleted":"0","num_feature":"51","num_nodes":"11","size_leaf_vector":"1"}},{"base_weights":[-1.1096894E-1,-5.105191E-2,4.729666E-1,-5.052497E-2,5.27285E-2],"categories":[],"categories_nodes":[],"categories_segments":[],"categories_sizes":[],"default_left":[0,0,0,0,0],"id":85,"left_children":[1,-1,3,-1,-1],"loss_changes":[8.686817E2,0E0,8.064447E1,0E0,0E0],"parents":[2147483647,0,0,2,2],"right_children":[2,-1,4,-1,-1],"split_conditions":[1.6215347E0,-5.105191E-2,-8.768976E-1,-5.052497E-2,5.27285E-2],"split_indices":[50,0,0,0,0],"split_type":[0,0,0,0,0],"sum_hessian":[3.7212344E3,2.2095232E3,1.5117112E3,7.9089584E1,1.4326216E3],"tree_param":{"num_deleted":"0","num_feature":"51","num_nodes":"5","size_leaf_vector":"1"}},{"base_weights":[1.5593728E-1,3.1449315E-1,-5.1458307E-2,5.2125495E-2,-1.4610989E-2,-5.1442098E-2,5.207724E-2],"categories":[],"categories_nodes":[],"categories_segments":[],"categories_sizes":[],"default_left":[0,0,0,0,0,0,0],"id":86,"left_children":[1,3,-1,-1,5,-1,-1],"loss_changes":[5.1690845E2,2.675379E2,0E0,0E0,4.0646033E2,0E0,0E0],"parents":[2147483647,0,0,1,1,4,4],"right_children":[2,4,-1,-1,6,-1,-1],"split_conditions":[1.4115094E0,1.0467054E0,-5.1458307E-2,5.2125495E-2,1.0688119E0,-5.1442098E-2,5.207724E-2],"split_indices":[50,0,0,0,1,0,0],"split_type":[0,0,0,0,0,0,0],"sum_hessian":[4.859527E3,3.9306008E3,9.289261E2,2.4136353E3,1.5169657E3,7.845676E2,7.3239813E2],"tree_param":{"num_deleted":"0","num_feature":"51","num_nodes":"7","size_leaf_vector":"1"}},{"base_weights":[-9.0149544E-2,-4.0315458E-1,1.8865152E-1,5.2159753E-2,-5.084655E-1,4.7745314E-1,-5.0911933E-2,-5.0947387E-2,3.1440735E-2,5.242408E-2,-5.0113797E-2],"categories":[],"categories_nodes":[],"categories_segments":[],"categories_sizes":[],"default_left":[0,0,0,0,0,0,0,0,0,0,0],"id":87,"left_children":[1,3,5,-1,7,9,-1,-1,-1,-1,-1],"loss_changes":[3.023469E2,1.5921109E2,3.6955756E2,0E0,1.3763428E0,5.9633514E1,0E0,0E0,0E0,0E0,0E0],"parents":[2147483647,0,0,1,1,2,2,4,4,5,5],"right_children":[2,4,6,-1,8,10,-1,-1,-1,-1,-1],"split_conditions":[1.0476162E0,-8.801815E-1,-2.6869372E-1,5.2159753E-2,1.0335872E0,1.3452916E0,-5.0911933E-2,-5.0947387E-2,3.1440735E-2,5.242408E-2,-5.0113797E-2],"split_indices":[38,38,50,0,48,0,0,0,0,0,0],"split_type":[0,0,0,0,0,0,0,0,0,0,0],"sum_hessian":[3.4627817E3,1.6311134E3,1.8316683E3,1.6635666E2,1.4647567E3,1.2957031E3,5.3596515E2,1.4633445E3,1.4123018E0,1.2370238E3,5.867934E1],"tree_param":{"num_deleted":"0","num_feature":"51","num_nodes":"11","size_leaf_vector":"1"}},{"base_weights":[-1.1057671E-1,-5.094635E-2,4.7050348E-1,-5.035294E-2,5.2451946E-2],"categories":[],"categories_nodes":[],"categories_segments":[],"categories_sizes":[],"default_left":[0,0,0,0,0],"id":88,"left_children":[1,-1,3,-1,-1],"loss_changes":[7.843277E2,0E0,7.273724E1,0E0,0E0],"parents":[2147483647,0,0,2,2],"right_children":[2,-1,4,-1,-1],"split_conditions":[1.6215347E0,-5.094635E-2,-8.768976E-1,-5.035294E-2,5.2451946E-2],"split_indices":[50,0,0,0,0],"split_type":[0,0,0,0,0],"sum_hessian":[3.381821E3,2.0053541E3,1.3764669E3,7.188537E1,1.3045815E3],"tree_param":{"num_deleted":"0","num_feature":"51","num_nodes":"5","size_leaf_vector":"1"}},{"base_weights":[1.5533979E-1,3.1327435E-1,-5.1306415E-2,5.1912952E-2,-1.4562334E-2,-5.1289715E-2,5.1860113E-2],"categories":[],"categories_nodes":[],"categories_segments":[],"categories_sizes":[],"default_left":[0,0,0,0,0,0,0],"id":89,"left_children":[1,3,-1,-1,5,-1,-1],"loss_changes":[4.665623E2,2.4123096E2,0E0,0E0,3.6683798E2,0E0,0E0],"parents":[2147483647,0,0,1,1,4,4],"right_children":[2,4,-1,-1,6,-1,-1],"split_conditions":[1.4115094E0,1.0467054E0,-5.1306415E-2,5.1912952E-2,1.0688119E0,-5.1289715E-2,5.1860113E-2],"split_indices":[50,0,0,0,1,0,0],"split_type":[0,0,0,0,0,0,0],"sum_hessian":[4.417184E3,3.573376E3,8.4380786E2,2.1946982E3,1.3786779E3,7.1263416E2,6.660437E2],"tree_param":{"num_deleted":"0","num_feature":"51","num_nodes":"7","size_leaf_vector":"1"}},{"base_weights":[-8.9833595E-2,-4.0218794E-1,1.879201E-1,5.1888503E-2,-5.0746536E-1,4.752422E-1,-5.0805937E-2,-5.0849617E-2,3.033856E-2,5.2177455E-2,-4.9938347E-2],"categories":[],"categories_nodes":[],"categories_segments":[],"categories_sizes":[],"default_left":[0,0,0,0,0,0,0,0,0,0,0],"id":90,"left_children":[1,3,5,-1,7,9,-1,-1,-1,-1,-1],"loss_changes":[2.7309464E2,1.4392351E2,3.3347195E2,0E0,1.2659912E0,5.3775085E1,0E0,0E0,0E0,0E0,0E0],"parents":[2147483647,0,0,1,1,2,2,4,4,5,5],"right_children":[2,4,6,-1,8,10,-1,-1,-1,-1,-1],"split_conditions":[1.0476162E0,-8.801815E-1,-2.6869372E-1,5.1888503E-2,1.0335872E0,1.3452916E0,-5.0805937E-2,-5.0849617E-2,3.033856E-2,5.2177455E-2,-4.9938347E-2],"split_indices":[38,38,50,0,48,0,0,0,0,0,0],"split_type":[0,0,0,0,0,0,0,0,0,0,0],"sum_hessian":[3.1459192E3,1.4805192E3,1.6654001E3,1.5146057E2,1.3290586E3,1.1789923E3,4.8640775E2,1.3277435E3,1.3149753E0,1.1257113E3,5.328109E1],"tree_param":{"num_deleted":"0","num_feature":"51","num_nodes":"11","size_leaf_vector":"1"}},{"base_weights":[-1.1022295E-1,-5.0850566E-2,4.6827605E-1,-5.01854E-2,5.220293E-2],"categories":[],"categories_nodes":[],"categories_segments":[],"categories_sizes":[],"default_left":[0,0,0,0,0],"id":91,"left_children":[1,-1,3,-1,-1],"loss_changes":[7.083066E2,0E0,6.563373E1,0E0,0E0],"parents":[2147483647,0,0,2,2],"right_children":[2,-1,4,-1,-1],"split_conditions":[1.6215347E0,-5.0850566E-2,-8.768976E-1,-5.01854E-2,5.220293E-2],"split_indices":[50,0,0,0,0],"split_type":[0,0,0,0,0],"sum_hessian":[3.0721318E3,1.8195419E3,1.2525898E3,6.5322556E1,1.1872673E3],"tree_param":{"num_deleted":"0","num_feature":"51","num_nodes":"5","size_leaf_vector":"1"}},{"base_weights":[1.5479925E-1,3.1217515E-1,-5.116838E-2,5.172137E-2,-1.4514194E-2,-5.1151033E-2,5.166346E-2],"categories":[],"categories_nodes":[],"categories_segments":[],"categories_sizes":[],"default_left":[0,0,0,0,0,0,0],"id":92,"left_children":[1,3,-1,-1,5,-1,-1],"loss_changes":[4.2122418E2,2.1758356E2,0E0,0E0,3.3116135E2,0E0,0E0],"parents":[2147483647,0,0,1,1,4,4],"right_children":[2,4,-1,-1,6,-1,-1],"split_conditions":[1.4115094E0,1.0467054E0,-5.116838E-2,5.172137E-2,1.0688119E0,-5.1151033E-2,5.166346E-2],"split_indices":[50,0,0,0,1,0,0],"split_type":[0,0,0,0,0,0,0],"sum_hessian":[4.0134055E3,3.2471833E3,7.662222E2,1.9946849E3,1.2524983E3,6.470708E2,6.054275E2],"tree_param":{"num_deleted":"0","num_feature":"51","num_nodes":"7","size_leaf_vector":"1"}},{"base_weights":[-8.95452E-2,-4.0129745E-1,1.8725395E-1,5.1638793E-2,-5.0655144E-1,4.7324082E-1,-5.070829E-2,-5.076061E-2,2.9256305E-2,5.195501E-2,-4.9763564E-2],"categories":[],"categories_nodes":[],"categories_segments":[],"categories_sizes":[],"default_left":[0,0,0,0,0,0,0,0,0,0,0],"id":93,"left_children":[1,3,5,-1,7,9,-1,-1,-1,-1,-1],"loss_changes":[2.4670155E2,1.301232E2,3.009876E2,0E0,1.1654053E0,4.8511963E1,0E0,0E0,0E0,0E0,0E0],"parents":[2147483647,0,0,1,1,2,2,4,4,5,5],"right_children":[2,4,6,-1,8,10,-1,-1,-1,-1,-1],"split_conditions":[1.0476162E0,-8.801815E-1,-2.6869372E-1,5.1638793E-2,1.0335872E0,1.3452916E0,-5.070829E-2,-5.076061E-2,2.9256305E-2,5.195501E-2,-4.9763564E-2],"split_indices":[38,38,50,0,48,0,0,0,0,0,0],"split_type":[0,0,0,0,0,0,0,0,0,0,0],"sum_hessian":[2.8570198E3,1.3434614E3,1.5135582E3,1.3783177E2,1.2056296E3,1.072238E3,4.4132025E2,1.2044049E3,1.224715E0,1.023866E3,4.837193E1],"tree_param":{"num_deleted":"0","num_feature":"51","num_nodes":"11","size_leaf_vector":"1"}},{"base_weights":[-1.099034E-1,-5.076353E-2,4.6625745E-1,-5.0020725E-2,5.1978406E-2],"categories":[],"categories_nodes":[],"categories_segments":[],"categories_sizes":[],"default_left":[0,0,0,0,0],"id":94,"left_children":[1,-1,3,-1,-1],"loss_changes":[6.3976855E2,0E0,5.9247726E1,0E0,0E0],"parents":[2147483647,0,0,2,2],"right_children":[2,-1,4,-1,-1],"split_conditions":[1.6215347E0,-5.076353E-2,-8.768976E-1,-5.0020725E-2,5.1978406E-2],"split_indices":[50,0,0,0,0],"split_type":[0,0,0,0,0],"sum_hessian":[2.7897957E3,1.6505304E3,1.1392653E3,5.934788E1,1.0799174E3],"tree_param":{"num_deleted":"0","num_feature":"51","num_nodes":"5","size_leaf_vector":"1"}},{"base_weights":[1.5430978E-1,3.111831E-1,-5.1042672E-2,5.154852E-2,-1.44667635E-2,-5.1024526E-2,5.148497E-2],"categories":[],"categories_nodes":[],"categories_segments":[],"categories_sizes":[],"default_left":[0,0,0,0,0,0,0],"id":95,"left_children":[1,3,-1,-1,5,-1,-1],"loss_changes":[3.8037753E2,1.9631366E2,0E0,0E0,2.9902164E2,0E0,0E0],"parents":[2147483647,0,0,1,1,4,4],"right_children":[2,4,-1,-1,6,-1,-1],"split_conditions":[1.4115094E0,1.0467054E0,-5.1042672E-2,5.154852E-2,1.0688119E0,-5.1024526E-2,5.148497E-2],"split_indices":[50,0,0,0,1,0,0],"split_type":[0,0,0,0,0,0,0],"sum_hessian":[3.645153E3,2.9495996E3,6.955536E2,1.8121393E3,1.1374602E3,5.873558E2,5.501044E2],"tree_param":{"num_deleted":"0","num_feature":"51","num_nodes":"7","size_leaf_vector":"1"}},{"base_weights":[-8.928073E-2,-4.0047324E-1,1.8664595E-1,5.1407725E-2,-5.057143E-1,4.714254E-1,-5.061797E-2,-5.0679427E-2,2.8194372E-2,5.1754095E-2,-4.9587805E-2],"categories":[],"categories_nodes":[],"categories_segments":[],"categories_sizes":[],"default_left":[0,0,0,0,0,0,0,0,0,0,0],"id":96,"left_children":[1,3,5,-1,7,9,-1,-1,-1,-1,-1],"loss_changes":[2.2288184E2,1.1766312E2,2.7173056E2,0E0,1.073822E0,4.378029E1,0E0,0E0,0E0,0E0,0E0],"parents":[2147483647,0,0,1,1,2,2,4,4,5,5],"right_children":[2,4,6,-1,8,10,-1,-1,-1,-1,-1],"split_conditions":[1.0476162E0,-8.801815E-1,-2.6869372E-1,5.1407725E-2,1.0335872E0,1.3452916E0,-5.061797E-2,-5.0679427E-2,2.8194372E-2,5.1754095E-2,-4.9587805E-2],"split_indices":[38,38,50,0,48,0,0,0,0,0,0],"split_type":[0,0,0,0,0,0,0,0,0,0,0],"sum_hessian":[2.5938135E3,1.2187948E3,1.3750187E3,1.25377014E2,1.0934177E3,9.746979E2,4.003208E2,1.0922767E3,1.1410632E0,9.3078815E2,4.3909725E1],"tree_param":{"num_deleted":"0","num_feature":"51","num_nodes":"11","size_leaf_vector":"1"}},{"base_weights":[-1.0961427E-1,-5.068434E-2,4.6442375E-1,-4.9857344E-2,5.1775664E-2],"categories":[],"categories_nodes":[],"categories_segments":[],"categories_sizes":[],"default_left":[0,0,0,0,0],"id":97,"left_children":[1,-1,3,-1,-1],"loss_changes":[5.7795575E2,0E0,5.3502945E1,0E0,0E0],"parents":[2147483647,0,0,2,2],"right_children":[2,-1,4,-1,-1],"split_conditions":[1.6215347E0,-5.068434E-2,-8.768976E-1,-4.9857344E-2,5.1775664E-2],"split_indices":[50,0,0,0,0],"split_type":[0,0,0,0,0],"sum_hessian":[2.5325876E3,1.4968783E3,1.0357092E3,5.3911766E1,9.817975E2],"tree_param":{"num_deleted":"0","num_feature":"51","num_nodes":"5","size_leaf_vector":"1"}},{"base_weights":[1.538662E-1,3.1028694E-1,-5.0927933E-2,5.1392376E-2,-1.44185405E-2,-5.090881E-2,5.1322576E-2],"categories":[],"categories_nodes":[],"categories_segments":[],"categories_sizes":[],"default_left":[0,0,0,0,0,0,0],"id":98,"left_children":[1,3,-1,-1,5,-1,-1],"loss_changes":[3.43562E2,1.7717062E2,0E0,0E0,2.7005627E2,0E0,0E0],"parents":[2147483647,0,0,1,1,4,4],"right_children":[2,4,-1,-1,6,-1,-1],"split_conditions":[1.4115094E0,1.0467054E0,-5.0927933E-2,5.1392376E-2,1.0688119E0,-5.090881E-2,5.1322576E-2],"split_indices":[50,0,0,0,1,0,0],"split_type":[0,0,0,0,0,0,0],"sum_hessian":[3.3095652E3,2.6783389E3,6.312263E2,1.6456796E3,1.0326594E3,5.33002E2,4.9965735E2],"tree_param":{"num_deleted":"0","num_feature":"51","num_nodes":"7","size_leaf_vector":"1"}},{"base_weights":[-8.9039035E-2,-3.997075E-1,1.8608756E-1,5.1192638E-2,-5.049454E-1,4.6977425E-1,-5.0534047E-2,-5.0605234E-2,2.7153188E-2,5.1572304E-2,-4.9409445E-2],"categories":[],"categories_nodes":[],"categories_segments":[],"categories_sizes":[],"default_left":[0,0,0,0,0,0,0,0,0,0,0],"id":99,"left_children":[1,3,5,-1,7,9,-1,-1,-1,-1,-1],"loss_changes":[2.0137822E2,1.0641011E2,2.4536763E2,0E0,9.9038696E-1,3.952368E1,0E0,0E0,0E0,0E0,0E0],"parents":[2147483647,0,0,1,1,2,2,4,4,5,5],"right_children":[2,4,6,-1,8,10,-1,-1,-1,-1,-1],"split_conditions":[1.0476162E0,-8.801815E-1,-2.6869372E-1,5.1192638E-2,1.0335872E0,1.3452916E0,-5.0534047E-2,-5.0605234E-2,2.7153188E-2,5.1572304E-2,-4.9409445E-2],"split_indices":[38,38,50,0,48,0,0,0,0,0,0],"split_type":[0,0,0,0,0,0,0,0,0,0,0],"sum_hessian":[2.3541704E3,1.1054554E3,1.248715E3,1.1400567E2,9.9144977E2,8.856581E2,3.6305695E2,9.903862E2,1.0635614E0,8.4580255E2,3.985549E1],"tree_param":{"num_deleted":"0","num_feature":"51","num_nodes":"11","size_leaf_vector":"1"}},{"base_weights":[-1.0935319E-1,-5.0612163E-2,4.6275347E-1,-4.9693733E-2,5.1592316E-2],"categories":[],"categories_nodes":[],"categories_segments":[],"categories_sizes":[],"default_left":[0,0,0,0,0],"id":100,"left_children":[1,-1,3,-1,-1],"loss_changes":[5.221895E2,0E0,4.833194E1,0E0,0E0],"parents":[2147483647,0,0,2,2],"right_children":[2,-1,4,-1,-1],"split_conditions":[1.6215347E0,-5.0612163E-2,-8.768976E-1,-4.9693733E-2,5.1592316E-2],"split_indices":[50,0,0,0,0],"split_type":[0,0,0,0,0],"sum_hessian":[2.2984246E3,1.3572544E3,9.411701E2,4.8968163E1,8.9220197E2],"tree_param":{"num_deleted":"0","num_feature":"51","num_nodes":"5","size_leaf_vector":"1"}},{"base_weights":[1.5346341E-1,3.0947646E-1,-5.0822914E-2,5.125116E-2,-1.4370628E-2,-5.0802656E-2,5.1174432E-2],"categories":[],"categories_nodes":[],"categories_segments":[],"categories_sizes":[],"default_left":[0,0,0,0,0,0,0],"id":101,"left_children":[1,3,-1,-1,5,-1,-1],"loss_changes":[3.103673E2,1.5993369E2,0E0,0E0,2.4394113E2,0E0,0E0],"parents":[2147483647,0,0,1,1,4,4],"right_children":[2,4,-1,-1,6,-1,-1],"split_conditions":[1.4115094E0,1.0467054E0,-5.0822914E-2,5.125116E-2,1.0688119E0,-5.0802656E-2,5.1174432E-2],"split_indices":[50,0,0,0,1,0,0],"split_type":[0,0,0,0,0,0,0],"sum_hessian":[3.0039595E3,2.4312537E3,5.7270575E2,1.4940072E3,9.372465E2,4.8355716E2,4.536894E2],"tree_param":{"num_deleted":"0","num_feature":"51","num_nodes":"7","size_leaf_vector":"1"}},{"base_weights":[-8.881583E-2,-3.9899194E-1,1.8557432E-1,5.0991125E-2,-5.0423693E-2,4.682689E-1,-5.0455656E-2,5.1407557E-2,-4.9226902E-2],"categories":[],"categories_nodes":[],"categories_segments":[],"categories_sizes":[],"default_left":[0,0,0,0,0,0,0,0,0],"id":102,"left_children":[1,3,5,-1,-1,7,-1,-1,-1],"loss_changes":[1.8196266E2,9.624574E1,2.2160359E2,0E0,0E0,3.569226E1,0E0,0E0,0E0],"parents":[2147483647,0,0,1,1,2,2,5,5],"right_children":[2,4,6,-1,-1,8,-1,-1,-1],"split_conditions":[1.0476162E0,-8.801815E-1,-2.6869372E-1,5.0991125E-2,-5.0423693E-2,1.3452916E0,-5.0455656E-2,5.1407557E-2,-4.9226902E-2],"split_indices":[38,38,50,0,0,0,0,0,0],"split_type":[0,0,0,0,0,0,0,0,0],"sum_hessian":[2.1361187E3,1.0024618E3,1.133657E3,1.0363317E2,8.988286E2,8.044542E2,3.2920276E2,7.682808E2,3.6173393E1],"tree_param":{"num_deleted":"0","num_feature":"51","num_nodes":"9","size_leaf_vector":"1"}},{"base_weights":[-1.0911615E-1,-5.0546255E-2,4.6122774E-1,-4.95284E-2,5.142622E-2],"categories":[],"categories_nodes":[],"categories_segments":[],"categories_sizes":[],"default_left":[0,0,0,0,0],"id":103,"left_children":[1,-1,3,-1,-1],"loss_changes":[4.7186517E2,0E0,4.367502E1,0E0,0E0],"parents":[2147483647,0,0,2,2],"right_children":[2,-1,4,-1,-1],"split_conditions":[1.6215347E0,-5.0546255E-2,-8.768976E-1,-4.95284E-2,5.142622E-2],"split_indices":[50,0,0,0,0],"split_type":[0,0,0,0,0],"sum_hessian":[2.0853716E3,1.2304291E3,8.5494244E2,4.447459E1,8.1046783E2],"tree_param":{"num_deleted":"0","num_feature":"51","num_nodes":"5","size_leaf_vector":"1"}},{"base_weights":[1.5309629E-1,3.0874214E-1,-5.07265E-2,5.112327E-2,-1.4320893E-2,-5.0704896E-2,5.103888E-2],"categories":[],"categories_nodes":[],"categories_segments":[],"categories_sizes":[],"default_left":[0,0,0,0,0,0,0],"id":104,"left_children":[1,3,-1,-1,5,-1,-1],"loss_changes":[2.8042642E2,1.4440465E2,0E0,0E0,2.20388E2,0E0,0E0],"parents":[2147483647,0,0,1,1,4,4],"right_children":[2,4,-1,-1,6,-1,-1],"split_conditions":[1.4115094E0,1.0467054E0,-5.07265E-2,5.112327E-2,1.0688119E0,-5.0704896E-2,5.103888E-2],"split_indices":[50,0,0,0,1,0,0],"split_type":[0,0,0,0,0,0,0],"sum_hessian":[2.7258245E3,2.2063293E3,5.1949506E2,1.3558947E3,8.504347E2,4.3860077E2,4.1183392E2],"tree_param":{"num_deleted":"0","num_feature":"51","num_nodes":"7","size_leaf_vector":"1"}},{"base_weights":[-8.8607505E-2,-3.9826143E-1,1.8509962E-1,5.080098E-2,-5.034964E-2,4.6689212E-1,-5.0381985E-2,5.1257957E-2,-4.9038578E-2],"categories":[],"categories_nodes":[],"categories_segments":[],"categories_sizes":[],"default_left":[0,0,0,0,0,0,0,0,0],"id":105,"left_children":[1,3,5,-1,-1,7,-1,-1,-1],"loss_changes":[1.6441046E2,8.70499E1,2.00174E2,0E0,0E0,3.2241806E1,0E0,0E0,0E0],"parents":[2147483647,0,0,1,1,2,2,5,5],"right_children":[2,4,6,-1,-1,8,-1,-1,-1],"split_conditions":[1.0476162E0,-8.801815E-1,-2.6869372E-1,5.080098E-2,-5.034964E-2,1.3452916E0,-5.0381985E-2,5.1257957E-2,-4.9038578E-2],"split_indices":[38,38,50,0,0,0,0,0,0],"split_type":[0,0,0,0,0,0,0,0,0],"sum_hessian":[1.937974E3,9.0906433E2,1.0289097E3,9.4178925E1,8.1488544E2,7.304514E2,2.9845825E2,6.9762103E2,3.2830406E1],"tree_param":{"num_deleted":"0","num_feature":"51","num_nodes":"9","size_leaf_vector":"1"}},{"base_weights":[-1.0890144E-1,-5.048592E-2,4.5979202E-1,-4.9361907E-2,5.1275518E-2],"categories":[],"categories_nodes":[],"categories_segments":[],"categories_sizes":[],"default_left":[0,0,0,0,0],"id":106,"left_children":[1,-1,3,-1,-1],"loss_changes":[4.2642245E2,0E0,3.950865E1,0E0,0E0],"parents":[2147483647,0,0,2,2],"right_children":[2,-1,4,-1,-1],"split_conditions":[1.6215347E0,-5.048592E-2,-8.768976E-1,-4.9361907E-2,5.1275518E-2],"split_indices":[50,0,0,0,0],"split_type":[0,0,0,0,0],"sum_hessian":[1.891677E3,1.1152717E3,7.7640533E2,4.0422527E1,7.3598285E2],"tree_param":{"num_deleted":"0","num_feature":"51","num_nodes":"5","size_leaf_vector":"1"}},{"base_weights":[1.5276082E-1,3.0808353E-1,-5.063782E-2,5.100734E-2,-1.4269194E-2,-5.0614513E-2,5.0914418E-2],"categories":[],"categories_nodes":[],"categories_segments":[],"categories_sizes":[],"default_left":[0,0,0,0,0,0,0],"id":107,"left_children":[1,3,-1,-1,5,-1,-1],"loss_changes":[2.5343686E2,1.3041177E2,0E0,0E0,1.9913885E2,0E0,0E0],"parents":[2147483647,0,0,1,1,4,4],"right_children":[2,4,-1,-1,6,-1,-1],"split_conditions":[1.4115094E0,1.0467054E0,-5.063782E-2,5.100734E-2,1.0688119E0,-5.0614513E-2,5.0914418E-2],"split_indices":[50,0,0,0,1,0,0],"split_type":[0,0,0,0,0,0,0],"sum_hessian":[2.4729468E3,2.0017721E3,4.7117468E2,1.2302814E3,7.7149066E2,3.9774457E2,3.7374606E2],"tree_param":{"num_deleted":"0","num_feature":"51","num_nodes":"7","size_leaf_vector":"1"}},{"base_weights":[-8.841204E-2,-3.9756015E-1,1.8466005E-1,5.0620165E-2,-5.0279226E-2,4.656289E-1,-5.0312288E-2,5.112182E-2,-4.8842896E-2],"categories":[],"categories_nodes":[],"categories_segments":[],"categories_sizes":[],"default_left":[0,0,0,0,0,0,0,0,0],"id":108,"left_children":[1,3,5,-1,-1,7,-1,-1,-1],"loss_changes":[1.4855681E2,7.874066E1,1.8084363E2,0E0,0E0,2.9133026E1,0E0,0E0,0E0],"parents":[2147483647,0,0,1,1,2,2,5,5],"right_children":[2,4,6,-1,-1,8,-1,-1,-1],"split_conditions":[1.0476162E0,-8.801815E-1,-2.6869372E-1,5.0620165E-2,-5.0279226E-2,1.3452916E0,-5.0312288E-2,5.112182E-2,-4.8842896E-2],"split_indices":[38,38,50,0,0,0,0,0,0],"split_type":[0,0,0,0,0,0,0,0,0],"sum_hessian":[1.757871E3,8.242603E2,9.3361066E2,8.556805E1,7.3869226E2,6.630632E2,2.705475E2,6.332669E2,2.9796278E1],"tree_param":{"num_deleted":"0","num_feature":"51","num_nodes":"9","size_leaf_vector":"1"}},{"base_weights":[-1.0870718E-1,-5.0430547E-2,4.5846367E-1,-4.9191143E-2,5.113845E-2],"categories":[],"categories_nodes":[],"categories_segments":[],"categories_sizes":[],"default_left":[0,0,0,0,0],"id":109,"left_children":[1,-1,3,-1,-1],"loss_changes":[3.8539288E2,0E0,3.5753433E1,0E0,0E0],"parents":[2147483647,0,0,2,2],"right_children":[2,-1,4,-1,-1],"split_conditions":[1.6215347E0,-5.0430547E-2,-8.768976E-1,-4.9191143E-2,5.113845E-2],"split_indices":[50,0,0,0,0],"split_type":[0,0,0,0,0],"sum_hessian":[1.7156223E3,1.01074475E3,7.0487756E2,3.674262E1,6.6813495E2],"tree_param":{"num_deleted":"0","num_feature":"51","num_nodes":"5","size_leaf_vector":"1"}},{"base_weights":[1.5245406E-1,3.0748686E-1,-5.0555803E-2,5.090204E-2,-1.4214937E-2,-5.0530553E-2,5.0799698E-2],"categories":[],"categories_nodes":[],"categories_segments":[],"categories_sizes":[],"default_left":[0,0,0,0,0,0,0],"id":110,"left_children":[1,3,-1,-1,5,-1,-1],"loss_changes":[2.2907922E2,1.1779555E2,0E0,0E0,1.7996301E2,0E0,0E0],"parents":[2147483647,0,0,1,1,4,4],"right_children":[2,4,-1,-1,6,-1,-1],"split_conditions":[1.4115094E0,1.0467054E0,-5.0555803E-2,5.090204E-2,1.0688119E0,-5.0530553E-2,5.0799698E-2],"split_indices":[50,0,0,0,1,0,0],"split_type":[0,0,0,0,0,0,0],"sum_hessian":[2.2430547E3,1.8157762E3,4.2727844E2,1.1160393E3,6.997369E2,3.6063055E2,3.3910635E2],"tree_param":{"num_deleted":"0","num_feature":"51","num_nodes":"7","size_leaf_vector":"1"}},{"base_weights":[-8.822968E-2,-3.9688098E-1,1.842483E-1,5.0446775E-2,-5.0211724E-2,4.6446475E-1,-5.024585E-2,5.0997622E-2,-4.8638254E-2],"categories":[],"categories_nodes":[],"categories_segments":[],"categories_sizes":[],"default_left":[0,0,0,0,0,0,0,0,0],"id":111,"left_children":[1,3,5,-1,-1,7,-1,-1,-1],"loss_changes":[1.3423317E2,7.1231445E1,1.63401E2,0E0,0E0,2.6330841E1,0E0,0E0,0E0],"parents":[2147483647,0,0,1,1,2,2,5,5],"right_children":[2,4,6,-1,-1,8,-1,-1,-1],"split_conditions":[1.0476162E0,-8.801815E-1,-2.6869372E-1,5.0446775E-2,-5.0211724E-2,1.3452916E0,-5.024585E-2,5.0997622E-2,-4.8638254E-2],"split_indices":[38,38,50,0,0,0,0,0,0],"split_type":[0,0,0,0,0,0,0,0,0],"sum_hessian":[1.5942314E3,7.4728394E2,8.469476E2,7.7730255E1,6.6955365E2,6.0173016E2,2.4521739E2,5.7468695E2,2.704321E1],"tree_param":{"num_deleted":"0","num_feature":"51","num_nodes":"9","size_leaf_vector":"1"}},{"base_weights":[-1.0853029E-1,-5.037957E-2,4.5722836E-1,-4.9014743E-2,5.1013507E-2],"categories":[],"categories_nodes":[],"categories_segments":[],"categories_sizes":[],"default_left":[0,0,0,0,0],"id":112,"left_children":[1,-1,3,-1,-1],"loss_changes":[3.4834116E2,0E0,3.2367416E1,0E0,0E0],"parents":[2147483647,0,0,2,2],"right_children":[2,-1,4,-1,-1],"split_conditions":[1.6215347E0,-5.037957E-2,-8.768976E-1,-4.9014743E-2,5.1013507E-2],"split_indices":[50,0,0,0,0],"split_type":[0,0,0,0,0],"sum_hessian":[1.5556735E3,9.158956E2,6.3977783E2,3.3401844E1,6.06376E2],"tree_param":{"num_deleted":"0","num_feature":"51","num_nodes":"5","size_leaf_vector":"1"}},{"base_weights":[1.5217178E-1,3.0694515E-1,-5.0479572E-2,5.0806195E-2,-1.41577E-2,-5.045213E-2,5.069346E-2],"categories":[],"categories_nodes":[],"categories_segments":[],"categories_sizes":[],"default_left":[0,0,0,0,0,0,0],"id":113,"left_children":[1,3,-1,-1,5,-1,-1],"loss_changes":[2.0709111E2,1.0641641E2,0E0,0E0,1.626535E2,0E0,0E0],"parents":[2147483647,0,0,1,1,4,4],"right_children":[2,4,-1,-1,6,-1,-1],"split_conditions":[1.4115094E0,1.0467054E0,-5.0479572E-2,5.0806195E-2,1.0688119E0,-5.045213E-2,5.069346E-2],"split_indices":[50,0,0,0,1,0,0],"split_type":[0,0,0,0,0,0,0],"sum_hessian":[2.0341493E3,1.6467324E3,3.874169E2,1.01218616E3,6.345462E2,3.2692844E2,3.0761777E2],"tree_param":{"num_deleted":"0","num_feature":"51","num_nodes":"7","size_leaf_vector":"1"}},{"base_weights":[-8.805712E-2,-3.9621735E-1,1.8386161E-1,5.0279018E-2,-5.014645E-2,4.6338746E-1,-5.0182015E-2,5.088399E-2,-4.8423048E-2],"categories":[],"categories_nodes":[],"categories_segments":[],"categories_sizes":[],"default_left":[0,0,0,0,0,0,0,0,0],"id":114,"left_children":[1,3,5,-1,-1,7,-1,-1,-1],"loss_changes":[1.2129119E2,6.44442E1,1.4765799E2,0E0,0E0,2.3804138E1,0E0,0E0,0E0],"parents":[2147483647,0,0,1,1,2,2,5,5],"right_children":[2,4,6,-1,-1,8,-1,-1,-1],"split_conditions":[1.0476162E0,-8.801815E-1,-2.6869372E-1,5.0279018E-2,-5.014645E-2,1.3452916E0,-5.0182015E-2,5.088399E-2,-4.8423048E-2],"split_indices":[38,38,50,0,0,0,0,0,0],"split_type":[0,0,0,0,0,0,0,0,0],"sum_hessian":[1.4456138E3,6.7743396E2,7.681799E2,7.060008E1,6.0683386E2,5.459439E2,2.2223595E2,5.213981E2,2.4545816E1],"tree_param":{"num_deleted":"0","num_feature":"51","num_nodes":"9","size_leaf_vector":"1"}},{"base_weights":[-1.08370386E-1,-5.0332453E-2,4.5607245E-1,-4.883134E-2,5.0899297E-2],"categories":[],"categories_nodes":[],"categories_segments":[],"categories_sizes":[],"default_left":[0,0,0,0,0],"id":115,"left_children":[1,-1,3,-1,-1],"loss_changes":[3.1487384E2,0E0,2.9313332E1,0E0,0E0],"parents":[2147483647,0,0,2,2],"right_children":[2,-1,4,-1,-1],"split_conditions":[1.6215347E0,-5.0332453E-2,-8.768976E-1,-4.883134E-2,5.0899297E-2],"split_indices":[50,0,0,0,0],"split_type":[0,0,0,0,0],"sum_hessian":[1.4104102E3,8.2985156E2,5.8055865E2,3.0369862E1,5.501888E2],"tree_param":{"num_deleted":"0","num_feature":"51","num_nodes":"5","size_leaf_vector":"1"}},{"base_weights":[1.5191191E-1,3.0645305E-1,-5.0408345E-2,5.071878E-2,-1.4098733E-2,-5.0378438E-2,5.0594565E-2],"categories":[],"categories_nodes":[],"categories_segments":[],"categories_sizes":[],"default_left":[0,0,0,0,0,0,0],"id":116,"left_children":[1,3,-1,-1,5,-1,-1],"loss_changes":[1.8723781E2,9.615062E1,0E0,0E0,1.4702469E2,0E0,0E0],"parents":[2147483647,0,0,1,1,4,4],"right_children":[2,4,-1,-1,6,-1,-1],"split_conditions":[1.4115094E0,1.0467054E0,-5.0408345E-2,5.071878E-2,1.0688119E0,-5.0378438E-2,5.0594565E-2],"split_indices":[50,0,0,0,1,0,0],"split_type":[0,0,0,0,0,0,0],"sum_hessian":[1.8443984E3,1.4931671E3,3.512314E2,9.1782684E2,5.753403E2,2.9633536E2,2.7900488E2],"tree_param":{"num_deleted":"0","num_feature":"51","num_nodes":"7","size_leaf_vector":"1"}},{"base_weights":[-8.789318E-2,-3.9556202E-1,1.8349522E-1,5.0115228E-2,-5.008275E-2,4.6238527E-1,-5.0120134E-2,5.07797E-2,-4.819566E-2],"categories":[],"categories_nodes":[],"categories_segments":[],"categories_sizes":[],"default_left":[0,0,0,0,0,0,0,0,0],"id":117,"left_children":[1,3,5,-1,-1,7,-1,-1,-1],"loss_changes":[1.0959541E2,5.8309174E1,1.3344533E2,0E0,0E0,2.1525024E1,0E0,0E0,0E0],"parents":[2147483647,0,0,1,1,2,2,5,5],"right_children":[2,4,6,-1,-1,8,-1,-1,-1],"split_conditions":[1.0476162E0,-8.801815E-1,-2.6869372E-1,5.0115228E-2,-5.008275E-2,1.3452916E0,-5.0120134E-2,5.07797E-2,-4.819566E-2],"split_indices":[38,38,50,0,0,0,0,0,0],"split_type":[0,0,0,0,0,0,0,0,0],"sum_hessian":[1.3106858E3,6.140684E2,6.9661743E2,6.411738E1,5.4995105E2,4.9522675E2,2.0139069E2,4.729459E2,2.2280857E1],"tree_param":{"num_deleted":"0","num_feature":"51","num_nodes":"9","size_leaf_vector":"1"}},{"base_weights":[-1.08223274E-1,-5.028872E-2,4.5498413E-1,-4.8639588E-2,5.079458E-2],"categories":[],"categories_nodes":[],"categories_segments":[],"categories_sizes":[],"default_left":[0,0,0,0,0],"id":118,"left_children":[1,-1,3,-1,-1],"loss_changes":[2.846411E2,0E0,2.6557724E1,0E0,0E0],"parents":[2147483647,0,0,2,2],"right_children":[2,-1,4,-1,-1],"split_conditions":[1.6215347E0,-5.028872E-2,-8.768976E-1,-4.8639588E-2,5.079458E-2],"split_indices":[50,0,0,0,0],"split_type":[0,0,0,0,0],"sum_hessian":[1.2785364E3,7.5181445E2,5.26722E2,2.761891E1,4.9910306E2],"tree_param":{"num_deleted":"0","num_feature":"51","num_nodes":"5","size_leaf_vector":"1"}},{"base_weights":[1.5167223E-1,3.0600584E-1,-5.0341394E-2,5.0638855E-2,-1.403403E-2,-5.030871E-2,5.0501984E-2],"categories":[],"categories_nodes":[],"categories_segments":[],"categories_sizes":[],"default_left":[0,0,0,0,0,0,0],"id":119,"left_children":[1,3,-1,-1,5,-1,-1],"loss_changes":[1.6930867E2,8.688582E1,0E0,0E0,1.3291133E2,0E0,0E0],"parents":[2147483647,0,0,1,1,4,4],"right_children":[2,4,-1,-1,6,-1,-1],"split_conditions":[1.4115094E0,1.0467054E0,-5.0341394E-2,5.0638855E-2,1.0688119E0,-5.030871E-2,5.0501984E-2],"split_indices":[50,0,0,0,1,0,0],"split_type":[0,0,0,0,0,0,0],"sum_hessian":[1.6721117E3,1.3537183E3,3.1839346E2,8.321265E2,5.2159174E2,2.6857288E2,2.5301886E2],"tree_param":{"num_deleted":"0","num_feature":"51","num_nodes":"7","size_leaf_vector":"1"}},{"base_weights":[-8.773557E-2,-3.949101E-1,1.8314642E-1,4.9953762E-2,-5.001998E-2,4.614479E-1,